{"inputLayerSize": 2, "hiddenLayerSize": 64, "outputLayerSize": 1, "learning_rate": 0.1, "w1": [[1.0186823778762308, 0.4937576611933209, -0.5686370737798548, 0.05854102753044532, -1.713537387914767, 0.1863545304212057, -0.2526772501805433, -0.13985969298553308, 1.6573657310071197, -0.42867965268652386, -9.814711027956143, -0.48470295458719764, -1.6123545017387475, 2.159419400160488, -1.5023196770138656, -0.6293380626397668, 0.3918434912566597, -0.893056555210317, -2.9970945449314046, 0.6496473021280761, -0.2188245403284103, -0.09072404286467965, 4.056576088462919, 1.0278482470144885, -1.1945543912409937, 2.066602184061123, 0.5095609019423584, -0.4375792357219156, 0.10485089889368152, -0.5747854058775789, 0.2577277168649138, -0.4721622338439533, -0.4320352351579581, 0.45560916423967995, 2.1793807105814875, -0.5181697892691709, 1.110937926669475, -3.3184938271625017, -1.7395254626745404, 0.2417019968398427, -1.6605832745414382, -1.2440945867015407, 0.5510967951210638, -1.7210160698310528, 0.6065620383501797, 2.832436294207247, -0.061583575644725386, -0.0787494405399035, 0.3956911554580111, -3.1657703703082642, -0.6665689191542952, -0.11443291245666257, -0.5944590492464262, 0.279692901837866, -3.720228296121879, -1.1975112741586627, -2.0835585423313185, -0.870633129789743, -3.7069810164724504, 0.11701541169205404, -0.03586392430950646, 0.41893992568153915, 0.40403542885273386, -0.3979851772585024], [-0.38728985441826536, 0.31678397568405975, 0.17734293975560464, -1.8559481346324906, -0.8468307314913777, 1.0114793532726265, -0.7977777166569409, 0.13571484285560534, 2.3587300224640972, -1.5730472260088297, 6.635934892653986, 0.4659960731771289, -1.8321626136684117, 2.8953916592067106, -0.1243767331746172, -0.697794661101448, -0.41689834830911104, 0.5899487182997826, -2.7947061311076182, 1.3371629738609025, 1.4782452249174547, -0.8359407432165935, 4.118101023011831, 0.9935295518995048, 0.6422004953921067, 1.9283502371460441, -1.2201910386555062, 1.1959096330825196, -1.309523045623642, 0.7965210700438333, -0.5576264220189814, 0.7122865422033854, 0.02338569795396347, 0.05796350565332354, 0.8388930599965951, 0.2823941582095324, -0.026524948164637983, -3.149349337531213, -1.2732722566717203, -1.3903504198230823, 3.429034700767373, -0.867915565835126, -1.6007463496016985, -1.5255261846959929, -2.375962208031337, 1.1206021249114457, -0.533439334505583, 1.2877738591470078, 1.1511056852739066, -3.685140776162655, -0.3496026764050664, 0.18982178142054232, 1.369766840605662, -0.26739803266060963, -3.700203898310879, 2.261845852938905, -1.8640662456274273, -0.570722467477176, 6.524529421628595, 0.28672820128554916, -0.5964617831061912, -0.609918286893075, -1.4788566627332946, -2.478059670919804]], "w2": [[0.9331062492589953], [0.3495161291793218], [0.10564298489125702], [-0.13150076815915251], [-1.3864432553130996], [1.2742513599108114], [0.6205476288655758], [-1.5814560857728037], [-1.333118102388355], [-0.8227471462824226], [16.42015872988583], [0.275383141308376], [-2.0037081727068076], [-0.9126727061369412], [-0.6973912954222254], [-0.7404414319132425], [0.5510268258308566], [0.5305479287427614], [-3.9239914240441394], [1.0200452485701657], [-0.6921463261037336], [-0.27144648614528094], [-1.7451253279571537], [0.3554208250452369], [0.7192387003343412], [2.3420710177042556], [0.22731687432285988], [-1.3580234328502327], [0.4176696439131353], [-0.5743721423583432], [0.15595377290115456], [0.03680713602191809], [-0.5136468097690007], [0.4244101057983769], [2.11548692884991], [0.5004857095890083], [1.0014990817192262], [-4.708842440726326], [-1.7866510946308307], [0.685542264378375], [-3.0580666108557573], [-1.1669917372805598], [0.7417443579965071], [-1.8278263321924133], [1.5156132651834215], [1.7063348411779935], [-0.21771873018779916], [-0.429198152503645], [1.5195573175951493], [1.9117064114029436], [-0.5301198296443009], [0.5772456836702085], [-1.165607681741775], [-0.40721815122330907], [-6.284309113421786], [-1.1465721434486378], [-2.5713607685215107], [-0.6986970535418531], [-7.9926713191442245], [-0.09351243429515423], [1.2854578412971236], [0.5348478652678578], [1.2523349639130106], [0.8588675570043706]], "w_h": [[0.2472273651342035, 0.5960814445287393, 0.6590805304465722, 0.6453731067420524, -1.0779826478874643, -0.1054941314482473, 0.12331251515025132, 0.3328639396467437, -0.2377793386855521, -0.49876155067951433, 0.027651510541109293, -0.6435006607257536, 0.8756021991731273, 0.14147227325349884, 0.43019124165807804, 0.7796156828763735, 0.6054434032572095, -0.4492777898254542, 0.6314858475569002, -0.9790401036924606, -0.008920399565264917, 0.40646305724207965, -0.651195585060799, -0.22497554511225096, -0.5658937309148462, -0.26716094470397045, 0.0848278330663998, 0.8121780851046347, 0.79443462973889, 0.5947683984962963, -0.6757948368741609, -0.11398062792108385, -0.19728753763890106, -0.03844494543650011, -0.18505085546840963, -0.8988748902767074, 0.6734396837019934, 0.7448728801134251, 0.9278933691362481, 0.08062693732845147, 0.23017050250202387, 0.4543974114885778, -0.39475824050091024, -0.4254422828325836, 0.045690832060748275, 0.11913607705045193, 0.18874709385577373, 0.7437197171004775, 0.4699336523743042, 0.8902480918886999, 0.33046442255462405, 0.9021187569230688, 0.7072336184491316, 0.7299394902814422, -0.4714477076985755, -1.0129729110025907, 0.014379912361048876, 0.8922666795861615, -0.23411836442561423, -0.7890920748177032, 0.13304909146716806, -0.9335576516496459, 0.5705951285066665, 0.2567199667516208], [-0.8615320981107449, -0.35983883466561783, -1.0234876848828156, -0.22115185550729982, -0.3942640135048024, 0.790673974328128, 0.8072335731747002, -0.3475454429430095, -0.5618963981241598, 0.37997189214399624, -0.0802613489229111, -0.06285286187544203, -0.8929456826356701, 0.0846303197127274, 0.7025063881696088, 0.5603476942736583, 0.6238773260667184, -0.6063904392863141, 0.22519302537751978, 0.5387196113130943, -0.4148997179798665, -0.9026185307118516, -0.40871990571290295, 0.5590233879374595, -0.2710603054129891, -0.37944841679433317, -0.7825383308139645, -0.8341638515793915, 0.4725741914483837, -0.8271564122230801, -0.8265004854731987, -0.7019203333468522, 0.8362129181416268, -0.9804517063397268, 0.1428086337886855, 0.09406681003727159, 0.4168246823843955, 0.7108313058188828, -0.3636952203169888, 0.23976714427631812, 0.41832102332462545, 0.16052438683081333, -0.1423423080314586, 0.7615890444296604, -0.8859829273378549, 0.2659995780661714, -0.052857083801733915, 0.28704031873347957, -0.5596564729858887, 0.7121976157596569, -0.8108304896377334, -1.0080416030303985, 0.13227457876447582, -0.37552109188020105, 0.5184373485561493, 0.48959710771471066, -0.4523328799395296, 0.43316788753536556, -0.5620678778954156, 0.7998852718931871, -0.2658919138476878, 0.00360621431570151, 0.49762431821748304, -0.017960404164717222], [-0.30706931513903557, -0.44741341307805843, 0.2618416148698234, -0.18717581090485236, -0.7468798330601115, -0.3749697970459812, -0.3979980820534066, 0.26830012827885574, 0.1831881913534787, -0.6587169154257015, -0.3400624781047191, -0.3418232276521601, -0.5231732514401569, -0.4921417809031445, 0.008967479969137297, 0.3820397705959998, -0.5724040895303342, -0.13001429176007934, 0.9204722001765799, 0.35217332739698015, 0.4445824658640946, -0.23131587866958647, -0.507328619987649, -0.6661683097915541, -0.769724980622422, -0.8168211324200145, -0.7787439920211048, 0.2943026515101397, -0.9133841346430125, 0.344186049768595, -0.26827595722967107, 0.35864158718664857, -0.1297865784874255, 0.32630095262185993, 0.11713836337412624, -1.0282404287187343, 0.14884487759654622, -1.0383206356225094, -0.7977313659528131, 0.09801564281728058, 0.29016889540446056, 0.45775484631936186, -0.04824564157348428, 0.6879205780080102, -0.14751587757238557, -0.04523365718983633, 0.5265597860849069, -0.27406655997870244, -0.03399507287026492, -0.026224952417146893, -0.821527864607347, -0.47699964145107, 0.09685117169179146, -0.7175311646674425, 0.02994535846635387, -1.01275305299126, -0.950084292416851, 0.19174723932860493, 0.6278084674569628, -0.39042926097196423, 0.6719372500411565, 0.6713903573179152, -0.7706423612112984, -0.911266073231227], [0.594675013433442, 0.9131392939573629, -0.3224946546707888, -0.7789219759200778, 0.6092214520519548, 0.7120989451151463, 0.03504881658526653, -0.7064721910173417, -1.356667049583416, 0.5164055807517713, -0.9533171445111861, -0.33811638593584614, -0.03888795483538688, -0.6188235623401646, -0.6087097348582483, -0.483625298157051, 0.7706800532487057, -0.46598785875299226, -0.6320366129145782, -0.16541701242220982, -0.5846100055538545, -0.3027898713041565, -0.9566265666127901, -0.7324408666784155, -0.6870307000401177, -0.6792980872943796, 0.8744994631004002, -0.13010988010458296, -0.562663898956079, -0.5623731864459228, -0.3005430499527339, 0.3244661492312805, 0.5340333523427263, 0.5692688341636254, 0.48202784013859357, -1.047358378775768, -1.0158589928190174, -1.224899895979521, -0.523310498218805, 0.7182226600305683, 0.9226610678373623, -0.20026243475479868, 0.6939898587280798, 0.3431929354743983, -0.008339156179392774, -0.02951034317668629, 0.17241786037895276, -0.4494504885516324, -0.878022581443783, -0.5143513255944158, 0.5726470716687494, -0.9232194458372531, -0.43466445492353206, 0.18772101012574147, -0.41269454789716975, 0.19853422000920776, 0.3608829565775052, 0.08524797651863839, 1.0809730763545322, -0.37059358594108854, 1.0087272111163592, -0.3785434817371973, -0.7546437638099021, -0.6215123356127856], [0.17871798724714485, -0.6554159022168421, 0.13289492549540227, 0.03431239305938455, -0.33502971024692735, -0.7935764494342039, 0.3464562862506779, -1.0422002530674637, 0.7301908230284591, -0.24163828567772017, -0.09543707222008785, 0.29316129567064, 0.39075332356217146, -0.8826541339067195, 0.8124882799988029, 0.343627215004198, 0.6664678761623212, 0.9270456925045962, 0.17247913076020427, 0.33801198282303574, -0.5213468671195544, -0.25080776112245723, -0.8090447711916098, 0.641123596526054, -0.6354348444026158, 0.18387760664237285, 0.3822171924759896, 0.012078752310793854, -0.03978612637895406, 0.10965606775597508, -0.8956538182128501, -0.879448459045216, -0.7903809169806109, -0.6588703208124524, -0.03640632604372126, 0.7842038821541267, -0.9933369797948387, -0.9308918954185411, 0.042101355718719646, -0.9264581593390546, 0.45996553895442854, 0.20222353657002892, -0.4999500989921555, -0.6525158187458778, 0.03319211535791507, -0.5389555789693309, 0.4190374248764051, -0.26843507765220415, 0.3807590785091085, 0.8388166106320645, 0.394270313769082, -0.8328429219573733, -0.11998382263388564, -0.41825790915713656, 0.33957261951641865, -0.13424020405679465, -0.8945614260243688, -1.0608826039152441, -0.03221510922725128, 0.08690916832740424, 0.30943907053945, -1.025610429946852, 0.19028219907012786, -0.3100812010588496], [-0.8746933083059729, 0.1444977096708482, 0.1669720694876151, -0.5167485446560534, 0.37244635742850485, -0.5043579033952306, 0.4929781186066414, -0.15619626491515207, -0.3257952915299697, -0.39130193186512324, -0.0037131190108023026, -0.056371296995399535, -0.992106804915257, 0.24087334293325932, 0.7027371568154663, -0.30134367383536115, 0.7024701878461653, -0.22782420556495336, 1.150586205722868, 0.4018823610133045, 0.9287757997099392, -0.2291086194193156, 0.5897213754640287, 0.2602026467568272, 0.639850040195378, 0.9452316333453487, -0.024986529266107095, -0.4065409155530636, -0.03980422715911927, -0.15873886894795902, 0.5223058194989311, -0.4374608110819571, -0.21657756672816855, 0.07208293009429834, 0.4429849555497836, 0.12265271841187096, 0.788374350333711, 0.014879724624685151, -0.5179680760043098, 0.8205270571971911, 0.11705667198114326, -0.016570483867030698, 0.5418560388195108, 0.2734824793326341, 0.04896668394735891, 0.11513108894534722, 0.5804321229658723, -0.5727236304930885, -0.7916406580827732, 0.02736251794783491, 0.4472265390845647, -0.4955319546788782, -0.17467866160626802, -0.17749615109190556, -0.519899505731037, -0.6353776621205444, 0.7067524234006043, -0.8659877680033674, 0.18460696284532607, -0.40001673444283403, -0.6816055161954447, -0.007245589308588165, 0.6586087420719897, -0.27083371720205696], [-0.011499793212249261, 0.6293887954722548, -0.308493073891424, -0.6370507791483708, -0.2829403127279661, -0.16504703155583156, 0.5954453565771507, -0.7808225514978314, -0.5666453008394717, 0.6485215762876707, -1.01352302041196, -0.6878516397016646, -0.4562361916868565, 0.13616452214766137, 0.18246511503081184, -0.27916025577675824, 0.8592000909647352, -0.3875993721971384, 0.6491233712281869, 0.9277033481395346, -0.3624069606373255, -0.9671053246882028, -1.2322786103255001, -0.5294489865195644, -0.22667582936560493, -0.014310480550790552, -0.7996778639683915, 0.3177260863623389, 0.046165252636492786, 0.5048159688109114, 0.6963262308357171, -0.4600076493385652, 0.9364317979013868, -0.5882579852916181, -0.5241692918966614, -1.072984869933351, 0.6858140838738921, -0.6627333495629981, -0.40354159011284185, -0.512673056585126, 0.22365372106224857, -0.9388567135338127, -0.2664674973107041, -0.804989717818988, 0.4481643768396948, 0.743927700198968, -0.5877516524565243, -0.3404314773170451, -0.3690658032689072, -0.224780790693723, -0.8004223848065123, -0.045189413040513556, -0.20442329161833794, -0.051000916503522765, 0.2504705938125514, -0.8137069644330259, 0.8376600876456971, 0.14832592829797325, -0.4621558846595948, 0.11937661970417576, 1.0670228812967277, -1.0645099361083068, 0.7321612088047041, 0.2433553527556659], [-0.751558309286261, -0.32575218598392136, -0.4862114435267194, -0.2316482995255681, -0.18924401961338022, -0.8703795806022272, 0.6416190610093224, 0.7488681348683117, 0.3491933378848762, 0.07994153244581755, 0.3485955834580142, -0.9726655240951819, -0.5425088693104605, 0.39268010603053694, -0.9346852054331422, 0.5193808248193515, -0.2642609685716706, -0.7170533727120696, -0.47061771956075965, -0.18951599358655016, 0.780355042413018, -0.7084555802288447, -0.235952663259751, 0.2317556352076769, -0.8449203189856375, 0.6185533333959496, 0.3986155245735179, -0.2576954951914522, 0.35084761604106335, -0.49660390336872723, -0.30790046788271563, -0.27076696266410644, 0.40109406880373827, -0.8069600355843872, 0.6438510305638209, 0.018544672522513714, 0.690608967756632, 0.1968035116059636, 0.054529655359671636, 0.29111094654436453, -0.4382000602447866, -1.0218753375657958, -0.6142724131055526, 0.5259257125128914, -0.4743197139888417, -0.7670754946608532, -0.5889470975212282, 0.5000332739894294, -0.051361194582469134, 0.5221064432835609, -0.6059236530500622, -0.2899928582551272, 0.884834488530809, 0.3461065318667363, 0.9365936989679594, -0.1126950193650297, -0.803319338682886, -1.0657013907735156, -0.8451328378270223, 0.007308326214220936, -0.2508614915555239, 0.4600453381668375, -0.4297857696792118, -0.7031164574932055], [0.37256373526164555, -0.4564576722632023, -0.7644353448308755, -0.6424235189249202, -0.49890417232523754, -0.022621691353016643, -0.7854948490157782, 0.7295136881799117, -0.23448861685043482, -1.0646310289253644, 1.0040290449202902, -0.5172394250368375, -1.1896762344316787, 0.17001927014605997, 0.7839658012835045, -0.03581728712664821, -0.02969726306912876, -0.04144068193209899, -0.16330551754759678, -0.35098430091793886, -0.205136232752326, 0.7646812955413879, -0.2694672160027538, -0.1405870282369524, -0.06119048140218302, -0.14712268809342915, -0.4861723662761534, 0.17688011928977196, -0.5566236046884429, -0.1687192305135348, 0.559431418037841, -1.040589837712649, -0.7869076597398432, -0.20634557988585994, -0.7825740515680671, 0.2522763711466718, -1.1550457985419482, 0.8720958778313536, -0.3558067559810296, -0.6610778558091376, 0.37914903101507863, -0.2116612348581417, -0.966233373319123, 0.2800885904322363, 0.5799929479218334, 0.8594438576803597, -0.5689592501085945, -0.16161156511082067, -0.5306719470882824, -0.6756760101932053, 0.15083183431139763, -0.08695606766811681, -0.2802358281719675, -0.9712119061727429, 1.4283873604403288, -0.3239840116065314, -0.9114681511925281, -1.273464038599358, -1.1217658567871611, 0.032640937750303585, -0.20040693371386542, -0.7995285711511756, -0.5016679837823764, 0.12150839813889497], [0.21455635846109183, 0.0065422083704048915, -0.2177809826139089, -0.22254733956202194, -0.16482085607605002, -0.6332018708108547, 0.7117533712994858, -0.7435316670018975, -0.7672327514766115, 0.1716844886942128, 0.17856159991194917, -0.2103747383472727, -0.6002480295987134, -0.1447373383066817, 0.738677172219681, 0.7765450378538284, -0.8803645987980168, 0.11416973780929937, -0.18740344859056315, 0.9270143110482277, 0.6998581969246556, 0.3022406589380531, -0.20745542745205509, 0.3205987410901621, 0.18706538825730307, -0.7584861752624147, 0.5233164084578383, 0.4459478869002346, -0.6690919705584841, 0.43328535696163534, -0.6982029316882035, -0.759793718240457, -1.017163506533637, 0.5342142829726126, 0.25135981690190695, 0.6159641293013295, -0.13229543123745643, -1.2201328470692367, 0.7243716171398412, 0.6634842596655846, 0.20922114683704202, -0.7179551096691718, -0.4561224154080691, -0.0882751391362001, -0.3799190369806278, -0.1546325500592327, -0.3332901503567903, -0.6558461284600549, 0.20062827669777533, 0.16783891923473765, -0.8875527346768501, -0.5170370708274216, -0.4517218824634052, 0.10188473211665985, -0.2877758303294834, -0.14886882660897385, -0.2741360990204271, 0.6319537809856429, -0.07315809503895174, -0.30476685559517175, 0.8346301624235762, -0.680595427875012, -0.48834435523316594, 0.8751422594302182], [-0.21959321658598135, -0.9909948921153195, -1.1784808015012118, 0.11927941508116109, 0.13999251739803403, -0.6976941331793804, 1.1202015124293825, -0.9362241165288528, -1.468273654526116, 0.3583772902120527, -3.823813794687566, 0.3935448853713176, 1.0345621829632627, -1.8276634507041396, 0.8403825827144329, -0.5220973849276435, 0.032408507413017956, 1.0280877665246844, 0.7125256973091434, -1.0455640079800765, -0.14692504465159706, 0.36639757682266344, -2.403724437705461, -0.20805482577053955, 0.7765636321109248, -1.0004934148369342, -0.0041486305168152325, -0.7261903166243456, 1.5965641066989344, -1.046406713237061, 0.004979738135207866, -0.08351307876517661, -0.5314370092128414, -0.4056770934429524, -0.2150501690644419, -0.8569342631732079, 0.8454688301848564, -1.031600403986127, -0.6439521619621279, -0.13304941452986987, -0.19797255684908346, -0.6619144516377993, -0.1597775209446728, 0.08790702061925244, 1.1744937087715361, -0.6058463642195778, 0.20089984864684216, -0.9634753417426358, 0.4354395598952902, 2.4452002933933397, 0.3073234673884379, 0.3793616203365461, 0.4893065604381709, 0.3641893347702437, -1.4137003882210213, 0.14950586146487188, -0.02607734998373477, 0.5150471059623927, 0.8779283454227114, -0.5209352948112373, 1.607137183310995, -0.9506209232074352, 1.0891690292032234, 0.5511401627489386], [-0.7019809153732639, -1.0863001334145046, 0.461941655103878, 0.870832642293028, 0.09121408149363393, 0.325296286728736, 0.7349687587926523, -0.3338110060080035, -1.1409827369215286, -0.7005009023013877, 0.06546984315495355, 0.6990890506117663, 0.38726742669549463, 0.11362422189346527, 0.07122362770323121, 0.05599908172991793, 0.6744085237973805, 0.1016212858662217, 0.734715166847348, -0.010238349653889811, 0.7716985117952901, 0.5524053859753482, -0.8619237267723497, -0.9109228186141455, 0.1592572441190427, -0.9926116015367419, 0.21372037358111484, 0.3627692992590609, -0.6952698279283628, 0.7150059110047371, -0.008123350159132833, 0.33385816565811455, -0.7837743321590652, 0.5261952103450982, -0.21530432129573093, 0.5974943431873392, -0.7330987046415177, 0.1789193855337717, 0.07492416568933052, 0.14797253996942888, -0.40420635877016303, 0.01270480230721416, -0.3631998543988254, 0.48405931119271517, 0.29550865158889505, 0.22097592784392966, 0.9120299917534949, 0.5475763187517352, 0.8116435229139628, -0.2642983585245611, -0.5591402395495497, 0.5495184321076029, 0.7701862001176952, -0.8130333282796814, -1.0281501260386645, 0.11946732237102352, 0.44315032953737205, -0.9329626447048618, 0.9954941980016606, -0.7092398900262842, 0.3865116721186189, 0.5631774218337456, 0.9034524960551732, -0.9034266571326975], [-0.5331693030582977, 0.6414134253543683, 0.2644623989259727, 0.8709184374072013, -0.744326925509106, -0.7363574173220543, 0.6557683290814632, 0.10851674385750656, -0.6002417452127647, -0.5351872744721917, -0.902220768339318, 0.5712819925330783, -0.5439534908333498, -1.2504926899999445, -0.7469338077655704, -0.2116423274703067, -0.3263276693638096, -0.7100856430115636, -0.5027311537956568, 0.4907613850555078, 0.2332415989602557, -0.3282547475205691, -0.7557674438989371, -0.008549116406982, -0.15412679543511762, -1.0002736005439514, -0.2860639603300299, 0.7148323168714371, 0.7341557367246287, -0.805381988779626, -0.2869886405749219, -0.08484844476149839, -0.40017466340683633, -0.18186061855942146, 0.4844186480455292, -0.6743307557869754, -0.5436972285778454, 0.05730727995017656, -0.6626079303072807, 0.609220893382817, 0.7976192762744377, -0.9539682739780553, -0.05646793662425897, 0.3120600344845362, 0.49416147190862925, 0.2496792172431234, -0.6572842323867534, -0.29928954676269665, -0.0025618906654657214, -0.7665455499811057, -0.5034908702800607, 0.5223874894999279, -1.0097726487158203, 0.3232663207302047, -0.35481596912490904, 0.6131092939979974, -0.29332916513633567, -1.0505048497671952, 0.7667711959500301, 0.6677096648140756, 0.38998680327656954, 0.47470169489470504, 0.30829541777339176, 0.8729471737297038], [-0.49439403796912473, -0.7038477775280885, -0.6901169703554898, 0.07815403916312395, 0.7932416866487917, -0.5550615880651699, -0.5100330824073418, 1.1227924686702406, 0.2742061780482412, 0.1582423726382514, 0.8276284714784322, -0.14917637513269613, 0.03012956671828962, -0.23474463010177385, -0.02179565713479988, 0.34555177522696945, -0.096461027869459, 0.23308301230020012, -0.32111737818909675, -0.6688841602958966, -0.9373176018305935, 0.37765809180278087, 1.4260162866209671, 0.7958504262213656, 0.038369205148582504, 0.48336950165031006, -0.05793600082410167, -0.07036763174624457, -0.6133202973324587, -0.25570354355261143, -0.2126722995611608, 0.14329588527922607, -0.3745982141572895, 0.5717848702219515, 0.050582949201514175, 0.06571599516499393, -0.25326883920366217, 1.5696622888425398, -0.18380022216688538, -0.201332068758209, -0.8136034840545481, 0.6012062178600323, 0.6522865820991699, -0.3342816532483901, -0.46821336131890123, 0.4828411043567706, -0.8138218499555767, 0.23851950883014827, -0.4443132477098112, 0.512803040084983, -0.7338453432223545, -0.2622868998003268, 0.20773868336235327, -0.12586933744364556, 1.5440749157182656, -0.2907136751185944, -0.8821998683584851, 0.08284543641184729, -0.8281642698019485, 0.69776563531563, 0.30905142421907683, -0.9844852168083985, 0.8645654161180999, -1.231860947414821], [-0.1840107280031153, -0.6170296075100609, 0.13050562738016477, -0.1359262016657599, -0.6048272438876526, 0.20389505696127222, -0.36258099455810044, -0.7405969766798519, 0.31574476011672925, -0.6879323844530749, -0.9901291144008898, 0.5494337979408019, -0.8118369894146447, -0.41388453374632367, -0.957448652435288, 0.7954772422942834, 0.784660290890313, -0.8450257456253152, -0.6067437581899149, 0.6193593426892797, -0.7699715348078148, -0.18755080641234592, -0.4495497421602232, -0.07548554417878692, -0.3129911768732698, -0.6033474037046977, -0.3551042901763712, 0.6201497343623219, -0.7544989275629884, 0.2156391661377725, -0.399872479306188, 0.8073692231783549, 0.8940138983793204, 0.48300192273904324, 1.0263130728558323, -0.9485052358559917, 0.8859965691587582, 0.010374646671488144, 0.8033513412769572, -0.9341762567877221, 0.2304288032304548, -0.6676721828404113, 0.6232884656086385, -0.28557550447200997, 0.8893602455024254, -0.5506146100343823, -0.3304355243294, -0.5470508886545304, -0.3090001495377206, 1.0413812797100677, -0.043393592665264644, 0.2637411640164513, -0.4130235257379562, 0.02414763455271662, -1.113089445359411, 0.4245943112650163, 0.21385260699208117, 0.02072412190336649, 0.9400722854183493, -0.10303514203960448, 0.5669784572549592, 0.4526363880446227, -0.2636063172628483, 0.4110404829143193], [0.1841440915503109, -0.567284673911846, -0.7919808855434591, 0.6243622113758984, -0.39973591372759637, 0.9719693728194775, 0.6264684235124758, -0.8483639514171875, -0.1328014071331174, -0.2749076520430482, 0.6549525449059628, 0.6140670313457164, 0.4147907606560933, -0.9142116018676598, 0.8002742232134562, -1.0143678164651995, 0.5240287472763455, -0.39899911025297546, 0.05072145324692384, 0.9089677714428288, 0.4942103166345126, -0.22218198465325567, -0.04976207321315137, -0.4446123289299993, -0.14074733761601543, -0.8409034642082004, -0.46116616187797244, -0.6995762314638968, -0.3732366185244965, -0.20476184046518034, -0.9373767787988772, 0.5595881294946119, 0.8221309610906019, 0.7243159689282392, 0.8059556306048566, -0.26034040021031335, -0.8366846984344956, -0.4870299080467865, 0.20881252682777798, 0.6362629366722375, 0.5712398493776423, 0.8772428208378568, 0.6545644062816105, 0.4425174274662121, -0.24946090010343716, -0.6083614388078848, -0.6535661103919392, 0.6450321121631849, 0.18111158667522345, 0.6510200215766996, 0.12312682803714624, -0.009119173855420092, 0.07366997776719013, 0.644321868875915, -0.3533678653907055, -0.26895460364379153, 0.16026903060447587, 0.5594084282423171, 0.5164811351274585, -1.012797426811999, 0.8589310821515118, -0.20074440789426562, -0.6637845293682635, -0.4554746990113122], [0.16564813632601708, 0.8649339912882593, 0.7252510922633472, -0.5733293485895176, 0.6759048926958918, -0.26328795884693557, 0.009460789801787424, -0.9601680111352484, -0.24343711857920422, -0.8292267290168136, -1.1479299625604569, 0.5213014617328388, 0.49446849230766987, 0.6294759951231799, 0.17260458690792302, 0.7622740195383797, 0.7238587842741744, 0.33169611277090016, 0.10182383809976066, 0.6258431235056846, 0.8691706804333423, -0.7448468532226322, -1.2206619227586863, 0.4601528141609754, 0.8979586618010711, 0.01422959107928271, 0.3118902178119679, -0.17266082219615078, 0.014429956703632809, -0.6279743201046678, -0.3609200956281941, -0.8493596951192757, -0.4831579878489358, 0.8349832402286977, 0.29886415823625656, 0.27069688731936264, -0.08855669091554569, -0.8967621428978654, 0.42640586401285824, -0.967716351113699, -0.49359993570094607, 0.3067637610146637, 0.048419922405987505, 0.32320932399821245, 0.012920508950289716, 0.6197685564523122, -0.9340258116349994, 0.1293827400883405, -0.04147393773033411, 0.5946493213671399, -0.2801964792802163, 0.2120373416958171, 0.5788726332988974, -0.33553427424320553, -0.4700998333662127, 0.3482011555875991, 0.3150695435669423, -0.9850732016548409, 0.7381843002521074, -0.23242960549549585, 0.07860713076635904, -0.3893911671451199, -0.7277210955604324, 0.8830115601239548], [1.0109400074512818, -0.8627269747654299, -0.012032459838361957, 0.22475242646962365, -0.20099730800550086, -0.708230484585466, 0.8954172313582381, -0.9294384893241782, -1.0265232873061754, -0.8562452165563625, -1.2895212493253405, 0.03469356729911587, -0.1211268444331173, -1.0787327813423169, 0.07695134174275313, 0.29499864174530954, 0.7953071466194213, 0.3617245995531181, 0.927220042082818, 0.2502586033273033, -0.46728426185478517, 0.7153856286928653, 0.3295979291833976, 0.8895318766803019, 0.9737665063243726, 0.2501266845644764, -0.30625082766622985, 0.43014819515739167, -0.15086859580574144, 0.5590208681070703, 0.12635737625515608, 0.5537262858940601, 0.5009318917296525, 0.5034581091994391, 0.34064401854732873, 0.6029752599374688, 0.9184313927866586, 0.6139796647452287, 0.9794314901689654, -0.7627506806062107, -0.62933313253843, -0.414234493277404, 0.8053839736703644, -0.640020985069695, 0.40615808995755737, -0.6836757085660837, -0.40633876873431485, 0.08291418499813522, 0.6940395256736555, -0.035225336715939415, -0.7268016395578253, -0.5662887642720871, 0.5712181270599989, -0.6502082511189525, -0.8228790517510853, 0.1181775398422765, 0.4840348634583639, -0.30925069437615804, 0.696815399204042, -0.5816874400488508, 0.46707435911163137, 0.5761804140640471, 0.9355928927555451, 0.8538983617645404], [0.042561893896316316, 0.30563618867623643, -0.22485893394012385, -0.5269235058991802, -0.5356191228746793, -0.4643832534546058, -0.14963301666851064, -0.0568686444065516, -1.2498968894935603, 0.6790245744827876, -0.3789372028792753, -0.531980072710137, -0.5375590252515728, -1.2591517510491268, -0.22121970512905, 0.11874972537172672, 0.18190492785000748, -0.5205245381840283, -0.648683665038452, -0.43626020150034905, -0.878752444737822, -0.891449276400643, -0.9446183592208358, 0.7455886246417394, -0.64078773983021, -0.07161019908811729, -0.14809894828636994, -0.9327624611069257, 0.46564481611416925, 0.13549505891213723, 0.9484633035331499, -0.7739611088250242, -0.4580267361248805, -0.9204483963587736, -0.6234759831942055, -0.8297667610598176, -0.4116179277786726, -0.335784333638895, 0.5732164781640053, 0.538233206311667, -0.5929442119572124, -0.6649125191922575, -0.3648342452704965, 0.6999578616067416, -0.32983084561300663, -0.277377110217143, 0.30712476751546375, -0.4951918132161795, 0.8889484829598145, 0.4117239318216525, 0.2864260873064741, 0.19561732679348479, -0.026458893609447122, -0.05227595735641567, -1.323450327805233, -0.7045217335536372, -0.931589454009562, -0.5557315319377326, 0.9713700221868138, 0.6082961105360705, 0.26254412460218146, 0.4282896586356473, 0.48075962331314326, -0.4323717852174713], [0.037459378661201706, -0.4001506481102443, -1.030663403734078, 0.7591595790528735, -0.7370309650758157, 0.0690711527630364, 0.2206215746698286, 0.6243600960176082, 0.0039054403417222356, -0.9331890495096543, -0.2971711477949327, -0.25971586434376526, 0.22321034773560708, -0.5836662225162073, -0.5542240332237142, 0.7402084216558912, -0.4395757814981687, -0.8151840128284997, -0.7911988541920958, -0.6441855925298297, 0.7966194979566883, 0.666231721290743, 0.5169146185990153, -0.258552740886801, 0.4557536775138935, -0.35894452831579826, -0.9260798025600905, -0.6464003209236302, 0.8057780123419103, 0.8744875850744696, -0.8658345632088936, 0.2077213902696524, -0.5069593939420505, 0.4969366543346963, 0.4162529918696293, -0.7108256319118008, -0.5424588971335087, 0.30018487130331467, -0.7360731178194745, 0.9358214523198166, 1.0333906758120708, 0.7376774008581803, 0.32804350034793095, 0.7615893002646859, 0.8493867800330873, 0.2581827110547256, -0.07091750425133299, 0.41346549738069904, -0.42118652504652204, -0.5903907673935891, -0.6475811026535563, -0.3187016777607362, 0.40459730838186675, 0.49799767652936905, 0.6100240623668256, 0.26165983546810007, 0.25331058980349824, -0.6292887048151001, -0.3210872970444227, 0.47072656724473777, 0.05073842944657265, -0.31741304718223134, 0.5254055683953415, 0.6513778531439811], [0.05500499333549895, -0.5421912913875736, -0.6211642880266327, 0.6203567743250047, 0.6430739846685471, -1.2387490858533003, 0.6657559223149174, -0.0629926532544746, 0.3113855965709919, -0.7548753326642975, 0.7869338297895884, -0.6100985768933184, -0.4245915509836755, -0.6459747509685296, -0.7762666835685086, -0.7063799853947885, -1.089978337135867, 0.1617539639826428, -0.43380172388882926, -0.985450186806599, -0.31318560188001315, 0.584311213652588, -0.6547777785374331, -0.27248300271502224, 0.05076269863930599, 0.058266362069787685, -0.1222993265122505, -0.1718376686454357, -0.37338340467541836, -0.12986882645644204, -0.8524465947987448, 0.44256447412371264, 0.022467574447306935, -1.1575244467803776, -0.17806523976812458, -0.9726056469205588, -1.190872879898693, -0.2532230713100715, -0.33341214128798197, 0.2719041446474116, 0.37233344897147874, -1.309497242899634, -0.6419264483013732, -0.049908915583585525, -0.7630478575074577, -0.6849135148092507, -0.4941701657704353, 0.2887181349017334, -0.08911985631629255, 0.5420725564589041, -0.38424228226056306, -1.022410890080599, 0.8704077418249808, -0.4480470068320904, 0.907028456853268, -0.6214193109575722, -1.1032434265897135, -0.26811018227616606, -0.5827478450766115, -0.7100614069824476, -1.1685890698115524, 0.6394538988055876, 0.053509919784676147, -0.7248451226788328], [0.28954588956430916, -0.9719268446103173, -0.9394470422397478, -0.016028889009284102, -0.06304076933717169, -0.05151594785742567, 0.2553162710375763, 0.8433009020081754, 0.6984799715122754, -0.791266084480797, 0.4323266936237049, -0.7505321539583217, 0.6047572748698102, -0.25308243067577013, -0.2596731247708987, 0.9088538373671767, 0.4018690986591691, 0.10029575575030915, 1.066645770167328, 0.579594160289809, -0.6117483586276025, -0.3185023599819354, -0.8280318876863964, -0.9672013277455856, -0.7142049644476434, 0.7827963792310563, 0.20667026688396406, 0.8570044478698433, 0.7274846360028909, 0.3997548677484204, -0.06792553231482044, 0.5052744671641537, 0.5691494188497873, -0.41934696800019755, 0.2734550969929129, 0.2766145110014076, -0.6139703336133157, -1.0844107803069787, -0.8973679041290041, 0.0006608450139152669, 0.6697311408015691, -0.078285487250171, -0.32453255334640413, -0.1290791977669298, -0.9375652109439936, -0.9024200173551432, -0.1982690170817861, -0.9804838507812484, 0.0796663460058113, 0.7499908977683436, -0.8200035981356769, 0.7658928014066199, 0.2897873509552275, -1.0255127599309317, 0.26759337699672914, 0.11765828534524735, -0.8062225803163691, 0.6055830599103948, 1.0603852739764092, -0.9677464784828385, 0.778742533378132, 0.3269318528480071, 0.3765562153643923, 0.4507540657013114], [-0.6021321732585555, 0.6794888945034359, 0.4074827099561989, 0.24003824797918838, -1.0700498397725895, -1.1101108219465055, 0.7706055675535711, -0.21993880959514153, 0.8231055309156213, -0.3579640577679287, 1.7254385774367629, -0.2941409761329279, 0.18458323287193046, 0.6422175547518926, 0.3143567140816378, 0.14955849465833546, 0.8608833774908625, -0.5796761590025405, -0.769228776129314, 0.15751363639868052, 0.6895370419598988, -1.0332951632154406, 0.14818025039809313, 0.6016344832877654, -0.19691833313697368, 0.6360846867173215, -0.9289346202922141, -0.40966174346561124, 0.6703015956531396, 0.07819688205154549, -0.5986368416055858, 0.12453243067229763, -0.9509128378298737, -0.21030283995177587, -0.47476806440927183, -0.7555157335266139, 0.023844273328747626, 1.5468869371238985, 0.46035130782846506, -0.1248999139726824, -0.7165160082766968, -0.21705251179995103, -0.08361457451018, 0.33520527366128744, -0.3980930029386026, 0.658216383360751, 0.24411905334960576, 0.9551706842637592, -1.073085879712964, -1.2766686933887854, 0.3668711714301755, -0.7462583595230436, -0.7041680886802141, 0.07717788302075627, 0.9588602998425746, 1.014738178379536, -0.6353785902674336, 0.5531246836814758, -0.2530766329540149, 0.7242821859838183, -1.4414758235384155, 0.3183848892814812, 0.42368297222233153, 0.5794224114453631], [-0.44636532990753597, -0.47695063529247866, -0.19919901319136127, 0.5969264154753868, -0.4296083056985203, -1.015208319293583, 0.45767293237439155, -0.5350885978635275, 0.10800883900103576, -0.5666546385578103, 1.0444514530962827, -0.4921394560481106, -0.4119823455026727, 0.5917460995349667, -0.7636522451693875, -0.8217226014073292, -0.0042393652703424135, 0.4048736023454865, 0.5609581268223343, -0.6879418028749649, 0.7728732733455783, -0.10567285345339733, 0.7633314865709844, -0.1486188654990658, -0.8128130953325202, -0.6713279348219131, -0.5130655722618497, -0.5897003256605081, -0.3048826437477733, 0.2073799396821748, -0.8616958516128223, -0.2935753922031837, -0.006298178741322902, 0.43087883852321496, 0.7697473127934293, 0.4337913694360683, 0.41663019943732804, 1.1877057264422584, 0.629378736140281, -0.29985512779084567, 0.558039559957832, 0.3476156387361787, -0.3494044858861185, -1.0972493884968875, 0.7825807994251333, -0.5823220444541197, -0.8226910812684214, 0.26704782536828414, -0.8828223887396327, 0.7269233894928219, -0.7997286107975266, -0.2759708005023515, -0.6024832415504493, 0.18671342431565163, 0.9983323884037628, -0.9420429269912921, 0.5620601559613745, -0.34596510166361233, 0.007584125878128621, -0.03164172985324052, -0.8774498595286396, 0.768797248663094, -0.6150088878003377, 0.055950060475242924], [0.2499606998007979, 0.5028621148986894, -0.6812924377531833, 0.7574565349787739, 0.5970252718066232, 0.42170872996993086, -0.294749058201938, -0.5995174343777, -0.7216537959476472, -0.08693363754414812, 0.050569851255049196, -0.981608039294896, -0.7814159834523481, 0.12436400232670118, 0.7870705069207784, -0.9908384844109187, 1.0213194478288523, 0.041703749335436, -0.021488641557063235, 0.7210655517238709, -0.043064246755150255, -0.13918173185028138, -0.5063085618383923, -0.8692145163711898, 0.5439351776664796, -0.5590236009064116, 0.6312381292616329, 0.4030941828708224, -0.3955736228040234, 0.8516024124440237, -0.25661769895949155, 0.3382460316475973, 0.9121079923765121, -0.8110442706514235, 0.7596877815258289, -0.024994942988488148, 0.42508076015653223, -0.9003446756767564, -0.7450981680958513, -0.5671387602416037, -0.5499723585501052, 0.0278136603527682, -0.7590038445230483, -0.032209982202229565, -0.1687177390711866, -0.07633210969193815, 0.6122735245456588, -0.1318459816928905, 0.9489608275665437, 0.013784585134165108, -0.11312724617187006, -0.5659882840523237, 0.6164681833769206, -0.3060332474639023, 0.30717572567440776, -0.6390079510535581, 1.0203251111352898, 0.6521841761746235, 0.10810593647100994, 0.1346455494483406, 0.7108293522267833, 0.6890586958680575, 0.3285835216682861, -0.7556412816864966], [0.69636182777931, 0.5762533845650204, 0.6403538255083825, -0.3306435381694863, -0.3200082797465716, -0.7123037821788687, -0.767749878028455, 0.005762089267165892, 0.23464806534490987, -0.20202004661600445, 0.5773852503386011, 0.6912504272852951, -0.9090841987015789, 0.9446166928598163, 0.8238050014228568, 0.3157638926044495, 0.1769001209295115, -0.7502225105846692, -0.7340854183162492, 0.848030059619645, -0.38770980453542286, -0.9703972183526878, -0.4665126242783591, 0.7783677674816258, -0.011837395630822667, -0.7358295327645247, 0.19343552517235943, 0.28790424227091604, 0.6827871201578791, 0.6434360316754849, 0.3012523023498191, -0.7444512510861857, -0.2754358245167899, 0.6819454310108931, -0.698061625264729, -1.2197080827999605, 0.29899026618879226, 0.10752098351246227, -0.6284949142594143, 0.5973253573967271, 0.878243751691864, 0.04610575656865393, -0.2745749549145791, -0.3061369299867342, -0.34967131112582295, 0.26980762536182046, -0.8482431989902852, -0.1558710741083341, 0.07143128112152974, -0.43291659884666606, -1.0344156706446785, 0.8296890389221309, -0.2766470984547494, -0.4224792588036719, -0.721487622893306, 0.26399653249151517, 1.035641114964085, 0.06507966905059122, -0.8925765140125526, -0.6779830888714588, -0.8725524008801107, 0.024639513551644756, 0.31584717175866234, 0.6959828719079679], [0.14674571762993735, 0.7841014730744008, 0.8429363342000386, -0.038440691779762115, 0.2930769794133669, 0.3340665556415782, 0.23481154503050994, -0.8906555021728102, 0.08194551749130573, -0.033515681394783246, -0.253415883814199, -0.10630434437834987, -0.7266379855007941, -0.531331768542657, -0.009021443415011205, 0.26670287918043095, -0.7788145047871463, -0.6844120382364868, 0.8763373135867437, -0.7815325999610677, 0.7398007047785723, -0.9892106341004931, -0.42912008307061594, -0.4673586521555102, 0.7454947653966277, -0.5217060257601177, 0.14584344557069226, 0.8349015997561522, 0.5504080969086672, -0.7885219913883438, -0.7620513914407121, 0.5882162601923513, -0.9889198915290647, -0.14345682619610564, 0.766044724401258, -0.9390931213381308, -1.0004955603824628, 0.3891605389958374, -0.6331151226103195, 0.4862696630673246, -0.39455294256249285, -0.6755510146525358, -0.9041934310162969, -0.022721813731178542, 0.2946242028323067, -0.1280944198000393, 0.023174596296657773, -0.5766044705414003, -0.8064615934206935, 0.4610679464227238, -0.03263428491866948, -0.7387929794979166, 0.7604537062379023, -0.3964215937534685, 0.4133637315823292, 0.36329385940836667, -0.28050914077880534, -0.14980151468924482, -0.24595559365440894, -0.1195315918663384, 1.0125936833521338, -0.08801165918960677, -0.9035182308369545, 0.9664963312794331], [-0.6493440758812716, 0.35475607900438116, -0.5752181921882612, 0.48057814580209546, -0.9090425291738307, -0.7636398763661523, -0.09653301496572315, 0.6727944846543092, 0.7958564196456314, 0.39190882517145526, 0.5178267418766914, -0.7129830659777333, -0.3205213756276529, 0.1880419692606311, -0.527517469835769, -1.0670458114053565, -0.12427706963398219, -0.32994888129221095, -0.28105970515952633, -0.11718179000591569, 0.1592214242035847, -0.10672159838470417, -0.369204812176444, -0.04365936824751397, 0.45397755121063477, -0.15077520273662323, 0.6845970086281166, -0.611183542815052, -0.6627213713124598, -0.7159485363418535, -0.7216690500930248, -0.7409125109643674, -0.3210289956769216, -0.31483763061849707, 0.5366542781243512, 0.439838066462388, 0.6255635309504876, 0.9479818288496199, -0.7981690874453264, 0.6388254253070791, 0.01175012083409405, 0.5716064054544453, -0.4265105408601897, 0.02708890713844221, -0.3398561675898113, 0.017874446277314597, -0.3943221984009856, -0.8454507647014475, -0.5703318520284193, 0.5283662435351929, -0.6708932007272833, -0.5534295803433632, -0.40574916181397813, 0.6075248154555286, -0.3255941674395404, 0.6651445349225361, 0.9372922231379407, -0.9226330668732966, -0.24386919116068148, 0.36747197109364094, 0.496678558576906, 0.44844986585003926, 0.1771447036722583, -0.6168651520934164], [-0.8742224908483905, 0.36358163445705477, -0.6413228223622414, -0.862877719214976, 0.5725609232188431, -0.929372473054663, 0.8676981412623591, -1.0303530633720435, -0.6317230164895663, 0.20118452611789536, -0.8804675746624431, -0.7376821148492377, -0.126427932147012, -0.5468540724727986, 0.9060486497136301, -0.24748302253629448, -0.3559987296730542, -0.9306092646005448, 0.2613725190849802, -0.656531321152581, -0.25158665531098706, -0.43777788279013724, 0.4196912482148884, 0.005194924785631308, -0.7398832855791926, -0.3941270899315305, 0.026979407697743162, -0.5138505112722966, -0.518129613327301, -0.6170759551237244, 0.48314431256101187, 0.137049447282833, 0.06238992660418894, 0.21228846330388507, -0.40476904474730097, -0.46256486324076196, 0.49695599993965356, -1.0312399919524085, -0.737025629851939, -0.3972949474222589, 0.5740932647368697, -0.27259114161569614, 0.3139269695760455, 0.5641414549918122, -0.05427455307891016, -0.9447976993806403, 0.5782602419531957, -0.8873285404178478, 0.39841832540360583, 0.7041789697550377, 0.6674522254822123, 0.29058762466465776, -0.8622340801430923, 0.09962266184833571, -0.06539980939621523, -1.1055572313158732, 0.378041444651488, 0.0666009284678043, -0.1803198189842041, -0.823168139046245, -0.14079063305718292, 0.3029298921152291, -0.03565077826215586, 0.46101374066991424], [-0.16372109530632015, 0.17932986299520118, 0.5962232010360713, 0.6137483396516881, 0.7106898119187575, 0.11094064795645645, 0.1630638480058672, -0.4791999963151099, -0.24834503503601998, -0.7873779402771532, 0.28587593180198534, -0.3801053443074466, -0.448393057318645, -0.5710366076300329, 0.02445282226811902, 0.022832663638024747, -0.7532942466942883, -0.4818467179152199, -0.3081527723907145, 0.7811103193000115, -0.165508619388742, -0.9619648736027963, 0.6976199454048368, 0.4518527322640722, -0.862306097440135, 0.5274467007179872, -0.9227460773031811, 0.6679671519087347, -0.43826421540503396, -0.7188849663040501, -0.4251208640916576, -0.4842131231769594, 0.7986926432623825, 0.5997608649252453, 0.9676463109041554, -0.7679576951593916, 0.16310630720503558, -0.6017600972918369, 0.25925283010077965, -0.5579525549594199, -0.32716589490039016, -0.7343603702047867, 0.556978185880833, -0.9220295957747816, -0.7514538014992315, -1.1431309313955766, 0.3946351253288963, -0.9070839132433995, -0.36945627123765523, 0.18293810436352806, 0.255436409136629, -0.6769719868345343, -0.4404884956602857, 0.6032822753221072, 0.013403128526069312, -0.41627326904202083, -0.4043312227005283, -0.8316830254977464, 0.7740222401505142, -0.6173808931519463, 0.20408922222754397, -0.24372777921650843, -0.1710088890595873, -0.29584105856664744], [0.05037026983473066, 0.6921897175116833, -0.9166285705834109, 0.3079625228401985, -0.17021855499719968, -0.7627876022798175, -0.43999289357201216, -0.7353376520074847, -0.15602263502724517, -0.5809936166071928, -0.9744746270116563, 0.052778108265063226, 0.2616037391250462, -0.33550571289106423, 0.9242785005478084, 0.25636827415945973, -0.25639081134675995, 0.2982685160798408, 0.8318337680828575, 0.8290931813100165, -0.2213142265866486, -0.22565630729294398, -0.23806049206512575, -0.07482691903576147, 0.915567604760651, 0.2416368371851651, -0.9827365707287016, 0.18632469427113263, -0.250419079932009, 0.23165792186786116, 0.8216806719247973, -0.7408023876643701, -0.5642935690396568, 0.8199728471731673, 0.037057928245658595, 0.6017251376992397, 0.5247721658819026, -0.16409742567101285, 0.003372268938355828, -0.7217840883294468, -0.28112577115331694, -0.6892926225381717, -0.3362370074051582, -0.8240138226656748, -0.5099196018743398, 0.7301156076624418, -0.5802507106977145, 0.6245470224990507, 0.2093190602906447, -0.40035040013369194, 0.7470467384148156, -0.7753840639913528, -0.6683933227111963, -0.5223731703693958, -0.6615688397707232, -0.14019491129385758, -0.3556693388964698, 0.7699859600209551, -0.30039365471165114, 0.3942924299332244, 1.0864509894665317, 0.3954027712302234, 0.34933457083693553, 0.9866841248101051], [-0.6371187325716909, -0.5314937517685109, 0.04583759534781198, 0.7376974032117825, 0.8854989172221378, -0.3939805886314773, -0.6429470707595593, -0.23940847527471795, -0.47068547066059035, -1.037110532504763, 0.13672583939731853, -0.13911740289721425, 0.7690865320954046, 0.7405461272393526, 0.13958618316154822, -0.2787231609561316, -0.0913547399707585, -0.13307845621619052, 0.36252838874216614, -0.7187046705348245, 0.7903280672922953, 0.06522140283235149, -0.3462490874310738, 0.6993043253147979, 0.28367924452833265, 0.2508818020530936, 0.7153531005110074, 0.07374745993650085, 0.5699760198658089, 0.7683502085895676, 0.021554206791558724, 0.28120445489326046, -0.2566307118631479, -0.17290011195691726, -0.25501990849054873, -0.510690781349635, 0.12614003186857867, -0.2870401999135674, 0.25327339738687693, 0.7939594405521049, -0.8315608534623847, 0.6713669594483126, 0.2402569968319024, -0.2673736471631714, -0.04790001200352705, 0.5893977340496843, -1.0168740995834407, 0.8248596921377322, -1.0423921578918391, 0.6898509188804001, 0.801764388306274, 0.3052431122047077, -0.07525827764565796, 0.8747272715566189, -0.24936376051240738, -0.16127220329509395, 0.3684730585243258, -0.9479313358942006, 1.1977985493626118, -1.050159979970742, -0.5052670794215016, -1.0170092278965912, 0.5530502273574763, 0.056356067790487865], [0.5338810222201905, -0.7635344725807184, 0.7204256368060347, 0.2636745187159112, -0.16383262304594717, -0.06066577384479681, -0.8348077418077741, -0.9697204264486542, -0.3444684952827768, -0.09428317295257227, -1.3321763358346432, 0.2663353185396749, -0.6184860585538285, 0.23132400317013524, 0.6481064138853749, 0.757715011186817, -0.3677663553836792, 0.7515655957386282, -0.2908192381709964, -0.8623713461914563, 0.8347011479279722, 0.3230917338285808, -0.8478311656813106, -0.3285104092739434, 0.1403685018362166, -0.835455153425395, 0.7354420681790055, 0.20121538105173747, 0.3357983995919048, -0.6453361403021054, 0.5642146618416918, 0.3531401267523646, 0.2780494199337168, 0.6341900598306912, 0.007831562232927032, -0.4701566035646192, -0.367053716737156, -0.8309365464615314, -0.6828576038456516, 0.2000336085101289, -0.2558182169176472, -0.7946968920078971, 0.223752491076624, -0.1401961149725695, 0.6144122011875018, 0.18109382572024565, 0.30651340009441863, -1.0572268270940004, -0.8265362318780674, -0.6448049668183481, -0.9724802813436458, -0.7776889999352609, -0.2014113812039887, 0.22791434867624605, -0.3540626176522228, -0.1488054398785461, 0.5218127062464943, -0.811299803935084, 0.04435216360182933, 0.6683410793404377, -0.09819048144702014, -0.26964150339766185, 0.9455429949886787, -0.23435743375595106], [0.8343159685398834, 0.3547965667726291, 0.5263219099442263, -0.36380395191463055, 0.4401347017233165, -0.6036986074676378, 0.5073078947558788, -0.16932905707658122, 0.6361113031965953, -0.26220430542133655, -0.8666591369253532, 0.13392567481409182, 0.8230065889073762, 0.5630077804941761, 0.04236915150900328, -0.17460771783749376, 0.8855004533186216, 0.22051269682274682, -0.4839681940579891, -0.4733342275565161, 0.2237485639898077, 0.1405155637547024, -0.9504071036126577, -0.3728367295801171, -0.9782810204767856, -0.45827342298014734, 0.5577618223712346, 0.742795872843121, -0.7931303934301916, -0.8235384456031947, 0.8097975302875223, -0.20125534608060683, -0.4983331149996755, -0.628121325273242, -0.7985253090528964, -1.0118697860718688, 0.03658875387815362, -0.40032229599061014, -0.5030907543294274, 0.010729808558650316, 0.4468152306137372, -0.578182122951853, 0.9425852726091937, -0.6734212779192152, 0.2681373114946253, -0.5664820845627083, 0.43700765539314873, -0.04906011921621181, -0.741186151482392, 0.06712226921276643, -0.9915096530369851, -0.3960445376296754, 0.036693027912884556, 0.4121990572987609, -0.30860143627524184, 0.20889023849134714, 0.9580384372197781, -0.02851473049545633, -0.4504301152363798, 0.3342627637690213, 0.0006610322322803295, 0.2291002675712979, -0.7234761957171182, -0.21265587576912792], [-0.32303581193387004, 0.4745559374873392, 0.5801525786234486, -0.1638482845559396, -0.33110534395873453, 0.6952028730491221, -0.4245897168618408, 0.6309930042269805, 0.45004228967252885, 0.8120804798467447, 0.8263880621061271, 0.7292126646231134, -0.0646683830629941, 0.22857661555825382, -0.8650723772422461, 0.7409287709627016, 0.26809812893259116, 0.5501706145539434, -0.3548387386696812, -0.9429853003450502, -0.733516492522422, -0.7827643156234161, 0.07936775439638957, 0.49787322672004847, 0.709049804290038, -0.5126672132304038, -0.8347445465086207, 0.8538450836324405, -0.5625073508912968, -0.7596295149013929, 0.6138576830837552, -0.4220745011848547, 0.9035983259725779, -0.7191045673833762, -0.29541425840824376, -0.8712588434263054, 0.46372860073937744, -0.3969335966587232, -0.3694421562719527, -0.07312913871547849, -0.7980753732246021, -0.9923747735045222, -0.9843389036661665, 0.3872024283874258, -0.3530677254342871, 0.01862892619235808, 0.06962834611896863, -0.22237376844971019, -0.727736866024227, 0.458282564236512, -0.9883417145935173, -0.8297028126977215, 0.9639580445420878, -0.07529027015229561, 0.9252417598247155, 0.566888791269744, 0.484448957685465, 0.1550430350871004, -0.6622199945112952, -0.8407593588755153, 0.2629776884622529, 0.6340658411498057, 0.2957349529823434, 0.6837482856702738], [-0.14626154130488556, -0.21910006509428423, -0.47621460068948507, 1.0448134934430737, -0.3334486371383654, -0.916834853529793, 0.9091749187815218, 0.6546896685404807, -0.5369308251151941, 0.7880839835177518, -0.7724858278203899, 0.9194631772501107, 0.6441504741587865, 0.3627905233867309, -0.1486931862730116, 0.40776744252743785, 0.7869336942257444, 0.25982657589135427, -0.5205501392663049, 0.3874713736492614, 0.08477768993166339, -0.8611422159783924, 0.6226003429023335, -0.9121123614034247, -0.11380308944969147, 0.6835294374082074, 0.10394063229464952, -0.7502330892242258, -0.4731850944110092, -0.2383251482534169, -0.5396993554135513, -0.5524743893449083, 0.5224218592909581, -0.682067357101699, 0.5840082768015645, -0.4725526049619572, -0.6752048863161605, 0.2706113547952334, -0.0358505635028657, -0.6993811392678262, 0.5786636715575335, -0.580629062602027, -0.7666960743160158, -0.5595124559722677, 0.05423446147680343, -0.048309471228760045, 0.020932623536229666, -0.6742850007276467, -0.6635342278561152, -0.3548977098469735, -0.2061754570562679, -0.1655463641206566, -1.0697960539433917, 0.7522237974252062, -1.124555562461159, -0.15936664170704698, -0.7473931800699224, 0.7706511996358683, 0.8952512638404903, -0.6920476291521258, 0.41715125187809693, -0.6287362111256106, -0.2602538772053486, -0.3093956036880262], [-0.6688144545069865, 0.012535413913197633, -0.3143045561447531, -0.7863903757068706, 0.051431752792010864, -0.3722785765536316, 0.5507717828441115, 0.6930479515068594, 0.1781572156503055, -0.42337145238124935, -0.23779801491557923, -0.28369600447899124, -0.6453828929064492, -0.17036704557310975, 0.26650820755438126, -0.4609187036097927, -0.4837428276140156, -0.05938546535423955, 0.8179868919131678, 0.03812775761410594, -0.7396033385211752, -0.5351974944967385, -0.9376714913873083, 0.4836312048059317, -0.2767852816939042, -0.6143164748032107, 0.2651641293490609, 0.08196536945963195, 0.4956023805583925, -0.4737610219473379, -0.9286198841261029, 0.23589964224990143, -0.40096731478764275, 0.8314859699120322, 0.3655370155222272, -0.5996491413106144, -0.9277080919731803, -0.24274993957091046, 0.06423334240645491, -0.6378901153745957, 0.28106467796933415, 0.39774832681492284, 0.08058938449595102, -0.4848120286832739, 0.871516483676986, -0.5253693178038175, 0.10040124183619131, -0.34574968008629187, -0.39277567606755476, -0.16637903536509366, 0.25139993590716025, 0.08349790136724299, 0.33003961485007904, -0.3716422702854122, 0.46823828262156303, -1.1490610287902934, -0.9333356445105319, 0.5888547511745587, 0.18673523353221705, -0.19336646494050536, 0.7441751173139716, 0.6022954570416156, 0.7138363995077895, -0.8578493288061808], [0.8029583863085233, -0.7656248954235998, 0.18348744460326358, -0.4322480018994325, -0.0859013345705598, -0.5963214547128335, -0.7080127749053322, 0.6843683860154272, -0.6199266665685965, -0.7587869538948163, 0.815678909986814, 0.4591942896385384, 0.3924409170009747, -0.28619640131488444, -0.9504598582168802, 0.0694628141855433, -0.0674862282166549, -0.1974534039267559, 0.03828141064784196, 0.9369304803625963, 0.6093844444690539, -0.20555234889273805, -0.39679519685687487, 0.725376972628735, 0.8196885714849973, -1.0542188772775858, 0.7567515699766068, 0.31954139064681825, -0.3916784303176875, 0.5159995546758365, 0.8442566617843691, -0.9298635170047158, 0.26851869068472506, -0.46793730079486634, -0.3085994872189135, -0.35759884272292786, -0.45154403195132486, -0.11882006752981765, -0.5499449413644093, 0.2456671979244066, 0.17974194432187954, 0.8327485653815819, 0.29826066335533313, 0.3054980252698686, -0.9020401231968389, 0.33209565222622883, -1.1561521585777124, -0.5048770900075772, 0.8374702759118464, -0.8640450821267049, 0.36156803892143274, -0.6058693200965127, -0.5151074884251372, 0.3145213069744714, -0.09428725848645735, -0.8035241567156608, 0.5005706967295176, -0.04749853472982333, -1.0301936560774039, -0.3939587300325572, 0.43601923431008327, 0.26508525758102847, 0.5278109577648129, 0.026196102734106944], [0.9668486542055571, -0.8828973319871528, -0.745981261435343, 0.8445233554272972, -0.19352717962779215, 0.8720561763071585, -0.9240906243072673, -0.29103714445494455, -0.5730929556071512, 0.5203607528143948, -0.2622682905298175, -0.6293692396277902, -0.542172732478509, 0.026866662932370413, 0.33833257326229865, 0.07347195495327759, -1.0322618501462735, -0.5880761039834421, 0.6952378456358785, -0.9274765184566554, 0.5307676526183583, 0.7846431825853285, 0.4924407018820589, -0.7952877372003702, -0.7570653614836428, -0.44772658237075896, -0.7697836317832236, 0.6227098793648864, 0.48100059818011137, 0.23231430221076457, -0.7640381875536965, 0.7515139620655819, -0.8674463332198116, 0.6406987003797037, 0.33016789886962056, 0.206906658937396, -0.6351203641805866, 0.10546841068027343, 0.026708748003777115, 0.9780294782846422, -0.6600312270555188, 0.10865326669912256, -0.28256247772834686, 0.3361814486539997, -0.5285714000839997, 0.31061282380322214, -0.980131221499026, -1.0484478730079818, -0.8624484176323677, 0.5294593853223268, 0.9064349926542926, 0.49231897831687726, 0.8149243386626478, -0.5206699518936423, -0.8844447232319546, -0.0032169846994499077, 0.748998894722269, 0.6873662953693712, 0.8867330628962187, 0.33410722256042336, -0.5604490202589197, 0.9171070912907011, -0.8481305078235407, 0.14841796716707198], [-0.6698087848650267, -0.39841563722746515, 0.4473745253495114, 0.7285493325829606, 0.23243627427859886, 0.6559857451358886, -0.3597919584231748, -0.8010208061499678, -0.9195365720343519, 0.47816724608970984, 0.3374886998949596, 0.4941318727985238, 0.5725821904526217, -0.04152246904642162, -1.0209060413758093, -0.7382600973076254, 0.6928231449360966, -0.7662121518546692, 0.3372251140298741, -0.6817103998417656, 0.5308486028208595, 0.7411977790929276, 0.2223675624267445, -0.0382796622813076, 0.5446476276536493, -0.5019625539478234, -0.7235602719612773, -1.0012524436497334, 0.5934607661582573, -1.1781735971963863, 0.8042818684409508, -0.8125197446305433, 0.1091010904043062, -0.3052775507634442, 0.1798931825502753, -0.48032567096858536, -0.5309228586432568, -0.4250265552189996, 0.033218480624580674, -0.09663748234166945, -0.1730722024435474, 0.1777664746006922, 0.48523799662390776, -1.131611442996255, -0.9200965038255371, -0.24716893223605552, -0.1472329971605315, -1.0429091154893584, 0.18118129903803723, -0.47121756102724094, 0.10281310104025435, -0.14181939265000157, -0.9853635478118696, -0.5883993143367277, 0.3614519723869852, -0.48893278294438575, 0.8386775029122983, -0.6116827662340093, 0.6226199231824806, 0.41699820572465174, -0.1181473594302081, 0.07858915438495251, -0.5149359392302465, 0.871905386498098], [-0.7975997688004774, 0.29163240871807933, -0.2349323199488689, -0.7238247759010162, 0.09983015036313353, -0.19264915878438857, 0.5477890008576765, -0.4836421298729502, -1.0324840853970512, 0.4878114081317251, 0.4252081397807559, 0.2170128436675388, -0.05143943356829581, 0.1564686471339387, -1.02603349087807, -0.8664330287849007, -0.24076451800629992, -0.029504124276187347, 0.6803503271202532, -0.7562331017860762, 0.6289372010884647, -0.08921948624301265, -0.3613847816288259, -0.5191049733248676, -0.24400563751091425, 0.3732418496853686, -0.30519891154723394, -0.2885840662767575, -0.6502619203724495, -0.6811732677865346, -0.5125445713242742, -0.8021810437945652, -0.473421415033686, -0.8770357869097498, -0.4045109555180621, 0.6106516951742348, 0.638867528751539, -0.6267176401970117, 0.5307969791927377, 0.13722209409775613, -0.15654948983083936, -0.981961598020829, -0.7145044594593354, -0.30574033492759145, -0.7575994573332853, 0.5503798852483166, -0.2576560018297707, 0.06240449371154451, -0.6440097369617853, -0.2111933620519872, -0.5000286727995965, -0.9095825088664353, -0.3023079837560498, -0.7741206257055251, 1.0678807468487543, -0.14838393840748, -0.320983708652587, 0.5553038539500365, -0.28183629394629117, -0.5559849435410968, 0.393427633982436, -0.3233411202844835, -0.6858672087425711, -0.7865725985227439], [0.47700341856529643, -0.6849566646895252, -0.7618496940541278, -0.7378062182492027, 0.02675446620195444, 0.35260899139814234, 0.1711952566679749, 0.6082471397968788, -0.14708256323942256, 0.7034339387384397, -0.09044202627838598, 0.5350472393356918, -0.1457887026414154, 0.5629031639021158, 0.6109584488877973, 0.3045749157544966, 0.31754077732262587, 0.39194453560041875, 0.7474914883945522, 0.41544700857919076, 0.3293546711470709, -0.8283506608948578, 0.1256073485303432, 0.7412191254555891, 0.024890587037418224, 0.5249327364558689, 0.3973424270138138, -0.7003725790248306, 0.41034583506611483, -0.9259841235382875, 0.10273951277282241, 0.2800521593040818, 0.43559203606610464, 0.7342557196568851, -0.2566274461633257, -0.35547617110077195, -0.9850332065437298, 0.41608406598243086, -0.7957521930493828, 0.030280449108722584, -0.03585285819673683, 0.3642130329118863, -0.7443525450331667, -0.8564636666590072, -0.1318375440312113, 0.013286479452308883, -0.7043057815558043, 0.43893045881059484, -0.1068180973787911, -0.15869442984588136, 0.5374237594554141, 0.11141671602320181, -0.21807447406770736, 0.11274164975186318, -0.16560074555899332, -1.1150388793073778, -0.21730943006338194, 0.7489305725494249, -0.3830621332516891, 0.4070325730045732, 0.10577554791508413, -0.04240813108174373, 0.10126862208393113, 0.14749331613232344], [-0.46332597089346644, 0.7836736586116216, -0.8510237473751671, 0.5843280675754495, -0.5945398581224282, -0.7945969755803304, 0.8022018031480583, 0.30678287640972096, -1.100986738279255, 0.23477668616551997, -1.0113546680918533, -0.5936944563356225, 0.393511469380313, -0.009087511761415899, -0.37888780328939076, -0.3269655429556676, -0.1379088155615329, -0.87782035476379, -0.9029095434287908, 0.4164993082599778, 0.24246223272028578, 0.6468655479169367, -0.28253860114761065, -0.500944582627809, -0.9019234304116288, -0.2788311810539103, 0.14654832110309274, 0.0662142484229164, 0.7186422073808938, 0.42760461008623396, -0.17441307981616244, 0.6668155421767968, 0.16638337283758098, -0.24634134755554327, 0.29469235571046787, -0.6564205609735839, -0.23068357188609756, -0.2254163355344709, -0.5045250769093338, -0.5569113444945526, 0.45361194572471336, 0.31457014020069574, -0.039856508473458216, -0.41075877606283323, 0.2115910959880574, 0.33702521667701935, 0.4950702193091062, 0.02824881424523565, 0.2958040675559888, 0.9405436019073657, -0.6927029011317749, 0.08357273920494251, -0.4575914462551657, -0.9605624796882504, -0.4470651942028856, -0.6236058364341689, -0.48638585323636463, -0.2911423222473715, -0.25790467674138506, -1.020530841950926, 0.8120347942585933, -1.0841035237614698, 0.45073839129458265, -0.5192138746442875], [0.6930068006353838, -0.628542947292861, -0.49242153594458327, -0.9624061219605891, 0.7219208856774643, 0.22561380411291304, 0.18951358801057583, -0.6107252922006303, -0.8253864012834782, -0.022363995378535173, -0.384895283884226, -0.18020281597183652, 0.5713983833437788, 0.5022367629678167, -0.8027873471133107, -0.9401001613116404, -1.0570371824364753, -0.19534680023578377, 0.5652740195379188, 0.7490200060242291, 0.004109034397252658, -0.2814676256359493, -0.01591213513956727, 0.435331048478288, 0.8010699301423797, 0.25305659240791306, -0.5594073872490357, 0.6849669815733503, -0.06853783060416209, -0.8004151345883807, 0.6720408002351758, -0.5422839445826858, -1.0021014380638462, 0.27620170418012624, 0.4683249376051034, -0.645663653438547, 0.07132449562957002, 0.6135821088388937, -0.482456144507953, 0.671072459118985, 0.02932470559992276, -0.3353134738701832, 0.13602922905615614, -0.12246718438507116, -0.3728515565609948, 0.8445023261712924, 0.5931528113470789, 0.6063281543903235, -0.7615454187625577, -0.2226944658446872, 0.6955095475537676, -0.6563950979856409, -0.2074825769329675, 0.23604097092822768, -0.22456490779798077, -0.9247966868875783, -0.3350251643708585, -0.5115054618694557, 0.23504235906020512, -0.44527891893629945, 1.0096280878216857, -0.5545649795488196, 0.6050785441106893, 0.6678914193203926], [-0.9494771684875812, -0.9301893568071254, -0.47550468924497835, -0.41884016431622484, 0.4397216203646171, -0.3577240218641572, -0.8479818880739711, -0.08240933143478707, -1.1938352167855713, -0.27286848300373784, -1.2787409279520583, 0.48511543888647746, 0.05493164078398631, 0.12628591335257172, -0.9857122658889548, -0.7816806885318381, -0.5540661733506528, -0.8376466786056377, 0.3762667873476929, -0.48128104818131157, -0.38105524361980603, -0.7510673035514132, -0.1450880014669396, 0.663622201206246, 0.8432622035047967, -0.48686404060539495, -0.8860863489256354, -0.9228273075758098, 0.4263239343344212, -0.7167943223187686, 0.6802409297126568, -0.13358258239783094, 0.4555400781987711, -0.6710485333404825, -0.5884150594122383, -0.810460611459844, 0.7274811674432351, 0.4004278621154034, 0.19958025133865975, -0.018702211648850747, 0.17831187965343018, -1.1089110705905274, 0.9436883178505528, -0.04486492759509659, -0.0528023606480026, -0.05929102999363415, -0.1275920850711019, -1.0551826635237493, -0.9174822572709085, 0.27244662326683255, 0.029845158488516307, -0.6582377054758478, -0.09857788301588852, -0.8221501394894845, -0.9260931924728599, -0.7035044317483811, -0.7494773729776637, 0.714583905474368, 0.30004960065013775, 0.16436716015273817, 1.1256075254666056, 0.23486434485130744, 1.0510428322815033, 0.8119418329408059], [-1.136395250696716, -0.06857727170330438, 0.08471647581727342, -1.0172760018070732, -1.188538958079249, -0.7435512653566697, -0.721016049709323, 0.47451544658076633, -0.7197590291354455, 0.21368252864930692, 1.398742463787982, -0.9792459734134371, 0.016348055267741433, -0.163886779858622, 0.21607762328338628, -0.7965969777852472, -0.44629358968447885, -0.8590194630562308, -0.411413928273499, -1.2502834010759043, 0.5432576181171789, -0.7630401611615354, -0.6220201283997782, -0.1388416386442889, -0.4945906155250972, -0.37478913873056524, -0.8635165354378146, -0.48115369355633947, -0.7964378624946814, -0.06378826131031481, -0.9775936280304115, -0.073023307027174, -0.29258792430472397, -0.06447299667482644, -0.49469189227596, 0.5222526937770346, 0.5132012543776894, 1.2423603175241205, -1.0073955918254265, -0.843607786518859, -0.7737842898045642, 0.43216046241715683, 0.21478712586536747, -0.46096977976693954, -0.2116585512367459, 0.11334758394229025, -0.6260429119604267, 0.5378756072822428, 0.6601384590893207, -0.01643085259753878, -0.5172469141762633, -0.9162637158143023, -0.8271090234146343, 0.46104490199945686, 0.9476014324570138, 0.4972218655081179, 0.054568295985994386, -1.0942337144727596, -1.1007472202010293, -0.5502837460821873, -0.8812737501099356, 0.5232073761601429, -0.082866562099978, 0.24448888961567083], [0.13120601917020605, 0.005833283714318593, -0.01600077529098228, -0.46638897236421556, -0.4991586924376973, -1.0080367591869093, -0.7950543898678442, -0.565775289081995, 0.15649817382550563, 0.07588945354396526, -0.9952416840272965, 0.22363514738997142, 0.25333910593179926, -0.09590923095864061, -0.017250644804639392, 0.050717189751277696, 0.3512771915335274, -0.2103245365980806, 0.7479474001873889, -0.8055893206760488, -0.13663264862162336, 0.6545576112241862, -1.1485251334976623, -0.38869371731537095, -0.5398979603246422, 0.22294200761060307, -0.6453636725263329, 0.16640332816736034, -0.6848830828395073, -0.5165917206849198, 0.24907929857010105, -0.5110690010934937, -0.9704584980740211, -0.5939883332026162, -0.6573275315491217, -0.8142760913028112, 0.7438257868658169, 0.042535753565188246, -0.24815490212707791, 0.456234660804605, -0.7895634991731759, -0.9321330175512936, 0.09251371008979886, -0.08345175573724965, -0.03663029919881616, -1.016401399682586, 0.516726504631549, 0.6024000291063034, 0.1927775441476751, 0.6304227243055622, -0.2013383463219966, 0.03711593064815319, 0.48285735740277363, -0.5555866242679978, -1.3319532032674128, -0.0009788225665537556, 0.08423313758221268, 0.7577507768276764, -0.11276192814805548, -0.7146949208338902, -0.11768975752540826, 0.47359292737884306, -0.6922125389748435, -0.5450634116464059], [0.6157068363947287, -0.8292855896108768, -1.014992188437117, -0.8352919692744264, -0.6077687646067607, -0.6574947016605844, 0.5883104376805235, -0.4560225287787436, -0.158315497672896, 0.19387039802257305, 1.0511786783870312, -0.8586783257548822, -0.5245590939753959, 0.6381294181995726, 0.4952906736488708, -1.0073353578290545, -0.28357806467739854, -0.7763391433108003, 0.42526077943121476, -0.6207876628909842, -0.2376606316619612, -0.6088197754534387, 0.6843194074859568, -0.7608875881331657, -0.6518884604066216, -0.9757118672233558, -0.4465590012923204, 0.1331773369092938, -0.8438492430962533, 0.03704401893073621, 0.6607996084405037, -0.37094310022647037, 0.7802448507224051, -1.0399338895770216, 0.17329356872373217, 0.10317619976245795, -0.6931309413931377, 0.21112449433884192, 0.7516748569641722, -0.8925897312019454, -0.4984956001496731, 0.11314046585084352, -0.4997833214034025, -0.394648861322263, 0.007422633575550179, 0.28203024549567707, 0.8409497421707429, -0.1954549024625312, 0.3492660162368117, -1.1296563189187339, 0.23522323831606767, -0.5728834073711062, -0.49522848932805774, 0.09946382467983056, 0.6804161869352612, -0.26091860915773585, 0.19058639955462484, 0.0776394532728386, 0.25369256346651364, 0.8448647884118111, 0.44567199484632464, 0.4336654032229702, -0.6288185429622509, 0.751748322051967], [-0.6055641346582703, 0.18976469709504998, 0.6182429921315771, 1.0989101989109173, -0.9685757212188285, 0.7888317271190942, -0.6767551771559939, 0.9308833015029625, -0.13282142144172007, 0.7826955760629616, -1.1983275513772276, 0.5997681938060075, -0.8711304555144477, -0.24742452931790285, -0.4756762816005991, -0.23924361636288544, 0.4579248608186534, 0.988608078987696, -0.2746157338574437, -0.8437680553125371, -0.989849896591896, -0.6687302266903494, 0.33191962189876245, 0.29004955688873046, -0.3868314525864239, 0.556650844781328, 0.1560498680184953, -0.5161286445760989, 0.3594730869961211, -0.3759602481112896, 0.25924014034223586, 0.7457245967674875, 0.34163372569079836, 0.3717294910951011, -0.7241420107718215, -0.5930966996978448, 0.12132637475016751, -1.0727386442404463, -0.8762976689065839, 0.16420948350627013, 0.6809647355828633, -0.7240662344372063, -0.299252289203856, 0.2748339814335463, -0.8084105550456953, 0.2544993463114332, -0.8722460690304277, 0.19099475600394303, -0.6478449610186332, -0.5545608209406468, 0.3433492869784672, 0.2431915218530194, 0.15250285923558393, -0.5754681223736646, -0.9667189911696692, -0.652784599275184, 0.20811178077437523, -0.5880884698366082, 0.6867988962507203, -0.29883327555815814, -0.4532144222558172, -0.49709034048587686, -0.004868896017588332, -0.7221514613831305], [0.3518200843761925, 0.6382237939508757, 0.8606637058974625, 0.5506145335555115, -0.11990821676703622, 0.12354747231298933, 0.4577871773607999, 0.18167337168388126, -0.46919654696726415, -0.2909919732159243, -1.4981107205176452, 0.20982689714131897, 0.7132094318761748, -1.0541206571242965, 0.6463979510553786, -1.0213592648522005, -0.008790371818668312, 0.9352288847683592, 0.5016546297823063, -0.17504467950444133, -0.4359963465788649, -0.4571194003775363, -1.1076314905346818, 0.5645945902360043, 0.11754316029336183, 0.2584712345758061, -0.08200920098993238, 0.45246120100149734, -0.18561044421841694, -1.1153252993078748, -0.05255192582205809, -0.765226259394728, -0.161833255892374, 0.4584175334065097, -0.07639715491668993, -0.42659401405318953, 0.12162137382518523, 0.017405973064486494, -0.14191831729836496, -0.7011000345822072, 0.8536388670013733, -0.42653263699488136, 0.37979048294964607, 0.6237416369786271, -0.13541572616790387, 0.08444983378759974, 0.3432861311341303, -0.8340749405743646, -1.0708110163831415, 0.5553212298336837, 0.6771158535445995, -0.16527534625564166, -0.6041987398295039, 0.7065127315191513, -1.3060962039913657, -1.2790380843005704, -0.20479594300196863, -0.6134861500030175, 1.1422308694331877, 0.262803182662961, 1.0660881629245442, 0.33298917770932185, 0.7896883163619635, -0.031282524720819216], [0.9481323892004431, -0.04922300610965136, 0.44325597009676104, 0.751118397640871, 0.684664278579225, -0.020373777809071333, -0.723510388121399, -0.45216889852892894, 0.6163114260296593, -0.2617137939641188, -1.204015456484665, 0.006166229387957737, -0.7044289273561269, 0.3659691840407065, -0.6841302943132519, 0.10328929921394, 0.6456313739718046, 0.9807955875577635, 0.12186759700092929, 0.21698561539794503, 0.28979991604332594, -0.4407136033367423, -1.104514832803759, -0.034949803159170685, -0.3319875457560334, 0.1432987563877425, 0.3310364660474918, 0.3527599387007396, 0.1417274324522927, 0.1607928806821054, 0.43334472675838415, 0.6916733055409167, -0.9523506149444491, -0.7173589567880775, -0.4002740229497119, -0.11817249175805122, -0.6026741426087262, 0.03407967016955645, 0.41328982071673065, 0.8108327236488299, 0.31073073302581883, 0.41951720572958456, 0.8769296826854255, 0.010318808947266516, 0.7334170062608234, 0.4303078023187238, -0.8416798537226862, -0.7764545514253492, 0.41171459113378006, 1.0173244143193607, 0.523676325358, 0.3897109684026994, 0.28531229001435676, -0.23999670530208791, -0.6293623586556442, 0.22186234081946454, -0.40507127948809035, -0.27346301892717073, -0.3401093663763409, 0.66925963418773, 0.8896453162907939, 0.8383183173973351, -0.7813061408336353, 0.674747058343442], [-0.6899922871222627, 0.699624023999772, 0.8878446598970782, -0.4867619486492627, -0.8081792877751703, -0.4205633971723945, -0.005825907570524954, 0.680083606693499, -0.6311820593276931, 0.04073844258590217, -0.7961523640385345, 0.6799894194333214, -0.5777901434595204, 0.7711992474643778, 0.6682598241515477, -0.6465593433215558, -0.43545503360305493, -0.3835810100025207, 0.40808972663056414, -0.22126923459366327, -0.5586967548112249, -0.16219621320566227, 0.34155302361619283, -0.6920868681775885, 0.6577165819362715, -0.10676301088860156, -0.6243850576694502, -0.961482448910182, -0.6221058321959569, -0.06757876277996827, -0.051146982252042894, 0.2407338948323344, -0.011757063550501533, 0.4574575366677613, 0.37474217183476316, 0.2727401264996925, -0.6681666688423283, -0.9259985679405003, -0.5625805587758922, 0.6827505926378996, -0.18993357997378157, 0.8859594097531577, 0.9016264436407013, -0.3269430583174544, 0.2837722522545815, -0.8589425488560954, -0.43996118811942614, -0.8541899848100912, -0.9407653418348161, -0.2745452104980105, -0.9435699449267503, -0.7111491361887688, 0.005114769388400314, -0.2549059293316786, 0.3223200882266747, 0.6037520101354292, -0.5591213718729962, 0.83109656518407, -0.48461841815192214, 0.4915316145911772, -0.7052967262359348, 0.08421227610233496, 0.2431408312585565, -0.4885889158066153], [-0.5281204470779448, -0.13536833157864206, 0.8521713890114614, 0.3827434943032173, -0.5991131431992676, -0.10449562174489269, -0.10026533684959839, 0.3617778164923838, 0.4501905910906621, -0.5603719192612433, -0.19416468486084912, -0.30349597171024895, -0.2760616294693931, -0.16215390609396027, 0.14822252949459902, 0.44628080948231963, -0.8071725895379901, -0.06105491228102987, -0.790455198526094, 0.07820807891087113, 0.13238237190826843, -0.6225265212871653, 0.06178096870133008, -0.4772990065713601, -0.5999725802905007, 0.8321560541643891, -0.4135877534848366, -0.8460085528416628, -0.7665102397877809, 0.6885571036845655, -0.6783100423994891, -0.4503099447479385, -0.883979085495808, -0.6304712537353085, -0.8532070716600975, -0.20838968398333843, 0.44187175696830305, 0.9107676627033204, 0.5268664945384101, -0.5707395528161353, -0.13123790789188275, -0.8855678427070556, 0.49784298187230247, 0.19242812568829126, 0.7701469911112021, -0.5002833484922369, 0.9037301920560937, -1.020822288833251, 0.1510124951891011, 0.8934891295276891, -0.24971476373625506, 0.39948325155337633, -0.2862643354244304, 0.6105954044142804, -0.6800081529510179, 0.3160948290438899, -0.8892729748538987, 0.8796134708863314, -0.1256764357530357, 0.27193389645138266, 0.31077089139392927, 0.6070326554479322, -0.48655960006538, -0.6619531173241232], [-0.21169354909833418, -0.23150321135537288, 0.652383963813491, -0.24808207836268195, 0.6838966141851176, 0.7817845992143511, 0.7002738605403631, -0.18014857745508278, 0.16624886919330417, 0.4917114120106984, -0.40663198562346237, -0.6274813180721981, -0.7989657352445884, 0.25085659186817866, -0.16616075621602044, 0.8956621340515816, -0.05318711199700742, -0.901926008201116, 0.0844083386178702, 0.056874222108868014, -0.3853184521965581, 0.807004363632184, 0.18877691611562752, 0.31691587505982094, 0.8497328671478348, -0.21276783124109552, -0.7888220866976269, -0.5999190380806462, 1.0981956570659264, -1.1039726958547482, 0.12679938934727036, -0.9003937760654293, 0.011347517630302634, 0.6714948026632191, 0.638643729802317, 0.430601852659061, 0.10193832536865755, -0.2908057118471045, -0.531561031386674, 0.19531261214033696, -0.1208815085285109, -0.620065761132681, -0.284286926816902, -0.537007120425186, -0.11059106599850133, 0.6868649038697305, -0.5178863570083672, -0.3734866867300152, -0.03242554805571192, 0.9576209832292851, 0.9915914395060312, -0.15903899538607288, -1.052095632721807, -0.9689206948618473, 0.4122214326393226, 0.6774966566188293, 0.6242378279555993, 0.4834460824624979, 0.5058518950499927, 0.884491780431417, -0.6690767511755157, -0.7087377715346815, -0.46170428479892967, -0.45909293164101517], [-0.984454842950333, -0.6788993202410661, 0.05329847997576309, 0.016083533720406874, 0.42981616505254777, 0.25425682116954534, -0.8398583584195668, 0.3348611864949136, 0.42451319805074916, -0.28604715907728095, 1.612169431674608, 0.2158170490725938, 0.04388450834455461, -0.005330110896154899, -0.7995592560613909, 0.3497179248858317, -0.4370954192214345, -0.7538768213259833, -1.0735887225151282, 0.6821553285955206, -0.7803149138322919, -0.7039386404467441, 0.25546074522898327, -0.483450522123056, -1.0856845834039515, -0.8573476438838162, 0.4246054404978909, 0.11067138593531124, 0.37528759414439905, 0.4339270635039132, 0.00568395116978862, -0.042489566037466675, -0.6489935175824927, -0.12987430871233688, 0.6267736575285583, 0.23988140919847162, -0.8456311328453147, 0.3940267603892752, -0.026661828663085804, -0.24973124502520117, 0.6754145812125946, -0.6117392360509628, -0.05940623756506379, -0.39568120347797586, -0.12845794603529212, 1.0064775211738732, 0.1307627083381569, 0.2483143112589809, -1.0111510947964253, -0.5418650112088229, 0.42406295562334184, 0.2454643415540161, 0.8507505746132048, -0.9375526765004291, 1.0179568192151933, -0.08298705723769, -0.5902998863540485, -0.11737211073831437, 0.18667199695612577, -0.29952497249058346, -0.43016877611591303, -0.1403974139431741, -1.0162391326368319, 0.11024273473033933], [0.2088580404443863, 0.319437825926073, -0.45918869563383274, 0.23533625479672893, -0.8494880094338881, 0.24927376369719476, -0.2998619853230606, 0.39675300854757123, 0.6902796457805312, 0.39834763798385137, 0.2076112786841792, -0.04852907612967997, 0.13944133377129012, 0.7986248572070982, -0.13554617674430636, 0.443452443889915, 0.2087195473650414, 0.5237496341135648, 0.09514938100527075, -0.3762256138554961, 0.6288205389366784, -0.6159805048784187, 0.9411529939701354, -0.15792886185112676, -0.6443403071009021, -0.7313969772042795, 0.08000078424587319, 0.47771072009524723, -0.4144175430908429, -0.3021595335927365, -0.9443350648033921, -0.023152951649906023, 0.8185100223767081, 0.20552009916654407, -0.3209557900289578, 0.4430161024564452, 0.7656067113554892, 0.24368468173689128, 0.3285359111435701, 0.3848900412904855, -0.5031156068372731, 0.9179568112117326, 0.8131704726038101, -0.31623592588141436, 1.0099692529400555, 0.06659473980584384, -0.3939074155756004, 0.35537491296232354, -0.8539818625133121, -0.8449191464905785, 0.4177610219443076, -0.37090127635365505, -0.6133047701547754, -0.16323692257893688, 0.3514239515884551, 0.5024465924155103, 0.6364785089752372, 0.2091994647757366, -0.12813167229737946, -0.7072757355880749, 0.5429221274559404, 0.20950847645930545, 0.7360128360876645, 1.0197982104071914], [0.4081829563593511, -0.9289817015933822, 0.30608611870085445, 0.5646049932481736, 0.30956892292216703, -0.8379219024705308, 0.5561662266726284, 0.5431726141255371, 0.6427918420383121, 0.22794676450953535, -0.9262544492374049, -0.7983252456917506, -0.634244570894247, 0.36338704395258853, 0.8559048986788439, 0.36231789074848825, -0.8145929022274881, 0.1012220448786294, 0.5114862613950251, 0.11053555422370671, -0.6472188257349274, 0.43040894202645, 0.5698172275588641, 0.329134371141023, -0.08278621892937164, -0.44692955654363387, 0.1866870517081582, -0.6580256220660605, 0.6573027402872138, 0.7073788587305467, 0.752373503941874, 0.07635127463658561, 0.5672992478651366, -0.8269889333505156, 0.5364047805785199, -0.4576217550309076, 0.2639327637126673, -0.7920369286916323, 0.8081416979112858, 0.9023247418436171, 0.0988573052958388, 0.4911569917036418, 0.7998155419108529, -0.00746547930844186, 0.28415035368471564, 0.9240384150846516, -0.6026134495378692, 0.6559414604370614, -0.6080780310254155, 1.0563708242828929, -0.023361930980756004, -0.26331033408824017, -0.5420358383835107, -0.023035770318779444, -0.42579392657280385, -0.5958577839330916, -0.6185481456120385, 0.12150662522032146, 0.25331320222522075, -0.5852437913466606, -0.048302091278825385, -0.030488832658785162, -0.13744220488683692, 0.904921484453574], [-0.759255168583532, -0.6243236778856535, 0.13510652171781148, -0.35243561142063407, 0.5870575346701995, 0.19590597718651273, -0.007330499117801165, -0.8201273477752568, 0.384128130417867, -0.6351383565522959, -0.3140017265871047, 0.46729396835389314, 0.07522712534787987, 0.588125745554159, 0.6503673501699115, -0.25150018733104096, 0.28406070472985434, -0.26372303793687424, -0.7144716813214681, 0.1251816911537362, 0.7937387990118654, 0.8284246933094949, -0.7415621477005442, -0.764206185035276, -0.13558248967647896, 0.0902690597081283, -0.5503078184382865, -0.391370079130674, -0.6693739834392372, 0.695095850936295, -0.21339943670942338, 0.18949962282787225, -0.2241683986324142, 0.6565253398595641, -0.5579677779362004, 0.6744000501735028, 0.5740323654324972, 0.4805099057964101, 0.5056007582863105, 0.9055950124935578, 0.8387747733324515, -0.6517513641564772, 0.5999826819472035, -0.5762341145740284, 0.08066125691975415, 0.31567151126305726, 0.5876853303717726, -0.12896851430359876, 0.6950021572401754, 1.180202406296519, 0.41900853708158015, -0.5685505144467853, -0.7622088651155793, -0.35973817007655784, -1.3923760000542658, 0.4793475389960682, -0.09586832271644279, -0.0916467379558661, 1.1969585558077391, 0.4369875646644177, -0.264005403067244, -0.6349112041733203, -0.8135189487560797, -0.7614548445902696], [0.4536296858736337, -0.05085477153416783, 0.08522753021278127, -1.1213572048876248, -0.5449710492060187, -0.056788064899182825, -0.7883060984699141, 0.3895386629966991, 0.13174684024524713, 0.44414023522343266, 1.382778145822642, -0.8287841614773636, -0.3692463234241294, 0.285572486276129, -0.4237041346823562, -0.1535675620361005, -0.5599853599854587, -0.19897985201867138, -1.3613995038045876, 0.21918064388558722, 0.7374679104645494, -0.19443230886623328, 0.3852706424696779, 0.29148519073393725, -0.893827956585563, -0.7659071243174753, 0.504938404112618, 1.1905815863768596, -0.6468726002289273, -0.3856806023689999, -0.6614912915949581, -0.3780738846319083, -1.0783310987959283, -0.4584968181144825, -0.8094170497612907, -0.14893014587652542, -0.7419248835241655, 0.4723316302933024, -0.5668862977513764, 0.28177318654717654, 0.030577330737591446, 0.062309170574211196, -0.28541272760037506, 0.5699228404596297, 0.221655474743017, -0.06258858182128853, 0.19582680881614184, 0.8424362747944778, -0.6503187426178587, -1.087709893647274, -0.8321332897772297, -0.712875476006342, 0.15256064836922678, -1.1171143170081181, 0.04399469299057778, -0.5449902254928988, 0.24634321040329438, -0.9244879294386686, -0.45304253587911336, 0.512952495637282, -0.09774471615206694, -0.040619557632674025, 0.5825598835118284, 0.05666771661247085], [-0.3437663479706619, 0.9682500885846419, -0.7294369754328848, 0.08619275639038387, -0.768089300494256, 0.7215119988520909, -0.5378780635333749, -0.9529136411619519, -0.020985458367436823, -0.2725234777378119, -0.1388385080047156, -0.5370603951000257, 0.4770491918218128, 0.8137527725205017, 0.47074685518595655, -1.0555039786965708, -0.1501053297595185, 0.6243788143498671, -0.5657668248526395, 0.47536766401528485, 0.12081195744188905, 0.8562873862661327, 0.3922787749043396, 0.24317639938384714, -0.9002545942220036, 0.1577702977760282, -0.4709633631198317, 0.5979086683754162, 0.23528804819526436, -0.46693939358100395, 0.6073663851486962, 0.6053158938725701, 0.33948941530616034, -0.5524228116938265, 0.6555618363342726, -0.09123307559781753, 0.3265450927920985, 0.25818835807109725, 0.3839003317181215, -0.46060194320342435, -0.7718797515906468, -0.501877816797914, -0.26642275479923233, -0.5736611404342405, -0.4491794286289713, 0.19883196222647043, 0.07954540796851296, -0.8005409684240672, -0.6238039447281377, 0.6771858440990676, -0.22091203196386047, -0.7449156725337, 0.06361394844848611, 0.5756938289723982, 0.542480614970802, -0.5932442815405407, -1.0119143072482435, 0.19728430387847712, -0.18182242620480818, 0.8243602837854813, -0.0011682104629130582, -0.563111356743423, -0.7827710665785149, 0.4521800416277868], [-0.5207609478437055, -0.1351157813466456, -0.17591264499904236, -0.8471078628429413, 0.6434705268855245, -0.7367360432687043, -0.3888373512273131, -0.5148195873330427, -0.20280188833341803, -0.8991765283095381, 0.0985697589591023, -0.32918576924313586, -0.351683019672504, -1.2330538240685935, -0.3149342473887435, -1.0457103716104654, -0.243896657437122, -1.0190870871368447, 0.4374921700012467, -0.11015080608249643, 0.15813921503065706, 0.1964270542222554, -0.7466247036533518, -1.2093838941528334, -0.8596714908550231, -1.6995194778746439, 0.6731352794071344, -0.6271670643727948, 0.020535292817620947, 0.08532825789299615, -0.5740669395043922, -0.6753307348944636, 0.6028829174569429, -0.27149709871746824, -0.21797084633252176, 0.49225176548685495, -0.6699940299822357, 0.43533378519670807, -1.1128933198978985, -0.4438795235024146, -0.3298976098476734, 0.2780150685435135, 0.481331394556152, -1.591929590913615, 0.7263004753213046, -0.5380198455369338, -0.7026526857816656, -0.3734703902867072, -1.1254660691099883, 1.224194261205919, -0.820121454716108, 0.7032157706586953, -0.7614638315183556, -1.065027112637201, 0.10793550811234909, 0.2309867682289107, 0.4416055086840561, -0.9908654982311653, 0.8031159304146454, 0.17761823586996217, 0.9315900350572736, 0.4179694131590573, -0.5890113595008493, 0.6028660407388854], [0.5603164825550285, 0.385129956458755, -1.1402335152283527, -0.12607375166057466, -0.24917649685505358, 0.15132024435403293, -0.8197283979120314, -0.38246276998451845, 0.6482154707781016, 0.47916329316058487, 1.2899145587977685, -0.010755728375284934, 0.43085562847152964, -0.5310061517378845, 0.05893412242441107, -0.1535358746961377, -1.210158730215692, -1.1213468561789217, -0.7331612766798533, -0.6148945923741946, -0.44996077919352234, -0.25158787224308865, 0.37538187501581327, -0.2746255542290842, -1.0982782275803786, 0.09461607360782592, 0.23181263355545942, 0.14362591219821058, 0.4780213658865105, 0.5848993812250827, -0.028155155802129888, 0.23519901773035265, -0.9595337021268383, -1.047174385929894, -0.9304759785680845, -1.205173867132299, -0.9669774836145875, -0.3642343253586011, -0.6936024407061984, -0.2038904793575569, -0.9083571414041677, 0.16556631687806106, 0.660393680077522, -1.1957422102791377, -0.5757361283594188, -0.9329585943969432, 0.23636384350285408, 0.0922670177091073, -0.27676910959702594, 0.5142155568669827, -0.30530722164694646, 0.47734980202673205, 0.3319987073696977, -0.6173946117201832, 0.35132188974309825, -0.4684729271695071, 0.8095407751139078, 0.04560796928594869, 0.48654252113838437, -0.2899900902534633, 0.27209315974495707, -0.25288921012789556, -0.9325979593864412, 0.8434041115336216], [-0.7962154957921028, -0.2591109121888824, 0.16621257371345183, -0.7056076614001577, -0.02452493009496832, 0.15358991752875809, -0.5518017240017915, -0.02075259318373883, -0.04140806750998335, -0.8720109876104549, -1.27593066342709, -0.4579256194180039, -0.8570165880387884, -0.5776373307802848, -0.8441476663658825, -0.6863904984140582, -0.807900376086068, -0.8895454320465217, -0.7128590925049288, 0.8592313782019534, -0.5415299059201589, -0.2223399479007177, -1.1288321539637505, -1.0419302351420798, 0.35538406432839537, -1.054906747377837, -0.6667063645354743, 0.4629700106347397, -0.800397839180223, 0.6429561106783811, -0.19346915898135775, 0.3022563572517756, 0.005649309497381388, 0.4961869756237385, -0.9527873775488304, -1.0275940500091612, 0.7677560024053136, -0.19878375071141433, 0.6371735921592283, 0.5019619173366177, -0.2671196375601536, 0.20434001401628152, -0.5367115051896851, -0.2033013530551334, 0.9649633611651207, 0.31387566242805526, -0.9060326323157734, -0.08792010512205396, 0.48225043190294986, 1.152667597214639, 0.26529153871372063, 0.6890151401981374, -0.10929504652380441, -0.6323282350670173, -0.26652266507292266, 0.2388306288776241, 0.5253535907729112, 0.8964176750983859, -0.3297291082426647, -0.039938789306734536, 0.28724902328569385, -0.5089938698032341, -0.3673692319022097, 0.2164013281745845], [0.8984497397139918, -0.32344126838278353, -0.17396957525318052, 0.2547586631879304, 0.07754732074234204, -0.06835847031255762, 0.3215533994010986, -1.2273432020335828, -0.1423897694756067, -0.6821131740493517, -1.0447078739301108, -0.7243236422065592, -0.5772918070780452, -0.7085336859723641, -0.6522470449591693, 0.10913590285175731, -1.0514763938734817, 0.8294181831309935, -0.5597870443562035, -1.0154057108668526, 0.42716670534515694, 0.7190896361324103, -0.0770995585321358, -1.0371506381391544, 0.43102701939695726, -1.1495513327906874, 0.27906497738241126, -0.1598456400018448, 0.28245758983236835, -0.13736708512671145, -0.7766925046614845, 0.10834748027601934, -0.8120251458945634, -0.05230430617561275, -0.05961079920973088, -0.08889944549172188, 0.6374648115213102, 0.47180640216765535, 0.4283058100595071, -0.17629527720864277, 0.4521899154210209, -0.12899112637031593, -0.42445046479834925, 0.49661663807705714, 0.6705192458239233, -0.36821325827379636, 0.39019401647309593, 0.012980763033798944, -0.9739864760803353, -0.07318514252576318, 0.7573276939150151, -0.9658515817756768, -0.8586409574678232, -0.8770308762922542, -0.8932256043630251, -0.9129832026871335, -0.16353850691060653, 0.7678353788719269, 0.3966693386857136, -0.11254866598574328, 0.23713889925360676, -0.24927476629874046, 0.44420813942627224, 0.8123617223473468]]}